{"learner":{"attributes":{"scikit_learn":"{\"_estimator_type\": \"classifier\"}"},"feature_names":["volume","is_swing_high","is_swing_low","active_bsl","active_ssl","dist_to_bsl","dist_to_ssl","body_size","upper_wick","lower_wick","true_bos_bullish","true_bos_bearish","sweep_trap_bsl","sweep_trap_ssl","oi_pct_change","vol_oi_ratio","oi_zscore","vwap","dist_to_vwap_pct","vwap_trend","atr","trigger_long","trigger_short","long_sl","long_tp","short_sl","short_tp","delta_oi","trade_risk","target_reward","has_rr_room"],"feature_types":["int","int","int","float","float","float","float","float","float","float","int","int","int","int","float","float","float","float","float","int","float","int","int","float","float","float","float","float","float","float","i"],"gradient_booster":{"model":{"cats":{"enc":[],"feature_segments":[],"sorted_idx":[]},"gbtree_model_param":{"num_parallel_tree":"1","num_trees":"300"},"iteration_indptr":[0,1,2,3,4,5,6,7,8,9,10,11,12,13,14,15,16,17,18,19,20,21,22,23,24,25,26,27,28,29,30,31,32,33,34,35,36,37,38,39,40,41,42,43,44,45,46,47,48,49,50,51,52,53,54,55,56,57,58,59,60,61,62,63,64,65,66,67,68,69,70,71,72,73,74,75,76,77,78,79,80,81,82,83,84,85,86,87,88,89,90,91,92,93,94,95,96,97,98,99,100,101,102,103,104,105,106,107,108,109,110,111,112,113,114,115,116,117,118,119,120,121,122,123,124,125,126,127,128,129,130,131,132,133,134,135,136,137,138,139,140,141,142,143,144,145,146,147,148,149,150,151,152,153,154,155,156,157,158,159,160,161,162,163,164,165,166,167,168,169,170,171,172,173,174,175,176,177,178,179,180,181,182,183,184,185,186,187,188,189,190,191,192,193,194,195,196,197,198,199,200,201,202,203,204,205,206,207,208,209,210,211,212,213,214,215,216,217,218,219,220,221,222,223,224,225,226,227,228,229,230,231,232,233,234,235,236,237,238,239,240,241,242,243,244,245,246,247,248,249,250,251,252,253,254,255,256,257,258,259,260,261,262,263,264,265,266,267,268,269,270,271,272,273,274,275,276,277,278,279,280,281,282,283,284,285,286,287,288,289,290,291,292,293,294,295,296,297,298,299,300],"tree_info":[0,0,0,0,0,0,0,0,0,0,0,0,0,0,0,0,0,0,0,0,0,0,0,0,0,0,0,0,0,0,0,0,0,0,0,0,0,0,0,0,0,0,0,0,0,0,0,0,0,0,0,0,0,0,0,0,0,0,0,0,0,0,0,0,0,0,0,0,0,0,0,0,0,0,0,0,0,0,0,0,0,0,0,0,0,0,0,0,0,0,0,0,0,0,0,0,0,0,0,0,0,0,0,0,0,0,0,0,0,0,0,0,0,0,0,0,0,0,0,0,0,0,0,0,0,0,0,0,0,0,0,0,0,0,0,0,0,0,0,0,0,0,0,0,0,0,0,0,0,0,0,0,0,0,0,0,0,0,0,0,0,0,0,0,0,0,0,0,0,0,0,0,0,0,0,0,0,0,0,0,0,0,0,0,0,0,0,0,0,0,0,0,0,0,0,0,0,0,0,0,0,0,0,0,0,0,0,0,0,0,0,0,0,0,0,0,0,0,0,0,0,0,0,0,0,0,0,0,0,0,0,0,0,0,0,0,0,0,0,0,0,0,0,0,0,0,0,0,0,0,0,0,0,0,0,0,0,0,0,0,0,0,0,0,0,0,0,0,0,0,0,0,0,0,0,0,0,0,0,0,0,0,0,0,0,0,0,0,0,0,0,0,0,0,0,0,0,0,0,0],"trees":[{"base_weights":[-1.8038248E-8,3.41467E-1,-8.568261E-1,5.89003E-2,8.030721E-1,-5.743771E-1,-1.113127E0,-3.4772217E-1,2.1553783E-1,8.729788E-1,2.6250598E-1,-1.0890131E0,-1.7169471E-1,-1.2999246E0,-5.6726706E-1,-5.300171E-1,1.0121885E-1,3.3458123E-1,-2.4589035E-1,9.220673E-1,1.3886994E-1,-4.2059295E-2,1.2600992E0,-1.1432844E0,3.8140383E-2,-2.988161E-1,5.389087E-1,-1.4334441E0,-7.904511E-1,-2.1830665E-1,-1.1471528E0,2.4080064E-2,-3.0371359E-2,1.4291668E-2,-6.09678E-2,2.5167152E-2,9.310664E-3,6.08831E-2,-1.62426E-2,4.671635E-2,-5E-2,-5.4030694E-2,2.4860008E-2,1.5184666E-2,-4.3202322E-2,-1.2615752E-2,7.8226976E-2,-6.0756933E-2,1.7690582E-2,-2.103247E-2,2.2885816E-2,-2.6907543E-2,4.535032E-2,1.4525393E-2,-7.368768E-2,-6.143945E-5,-5.6549132E-2,-2.0155702E-2,6.78944E-2,-6.912822E-2,2.522932E-2],"categories":[],"categories_nodes":[],"categories_segments":[],"categories_sizes":[],"default_left":[0,0,0,0,0,0,0,0,0,0,0,0,0,0,0,0,0,0,0,0,0,0,0,0,0,0,0,0,0,0,0,0,0,0,0,0,0,0,0,0,0,0,0,0,0,0,0,0,0,0,0,0,0,0,0,0,0,0,0,0,0],"id":0,"left_children":[1,3,5,7,9,11,13,15,17,19,21,23,25,27,29,31,33,35,37,39,41,43,45,47,-1,49,51,53,55,57,59,-1,-1,-1,-1,-1,-1,-1,-1,-1,-1,-1,-1,-1,-1,-1,-1,-1,-1,-1,-1,-1,-1,-1,-1,-1,-1,-1,-1,-1,-1],"loss_changes":[3.1159543E2,9.928049E1,2.1330399E1,3.0229637E1,1.0694687E1,3.0161156E1,1.5377258E1,1.0859991E1,1.8890299E1,9.080688E0,1.0545084E1,7.3140182E0,7.6898346E0,6.823944E0,8.262347E0,7.659155E0,9.84989E0,6.731962E0,8.577056E0,6.5743103E0,8.050615E0,8.056221E0,4.1285505E0,7.171875E0,0E0,6.7681017E0,5.6437044E0,6.783371E0,7.1257286E0,8.557473E0,6.7516975E0,0E0,0E0,0E0,0E0,0E0,0E0,0E0,0E0,0E0,0E0,0E0,0E0,0E0,0E0,0E0,0E0,0E0,0E0,0E0,0E0,0E0,0E0,0E0,0E0,0E0,0E0,0E0,0E0,0E0,0E0],"parents":[2147483647,0,0,1,1,2,2,3,3,4,4,5,5,6,6,7,7,8,8,9,9,10,10,11,11,12,12,13,13,14,14,15,15,16,16,17,17,18,18,19,19,20,20,21,21,22,22,23,23,25,25,26,26,27,27,28,28,29,29,30,30],"right_children":[2,4,6,8,10,12,14,16,18,20,22,24,26,28,30,32,34,36,38,40,42,44,46,48,-1,50,52,54,56,58,60,-1,-1,-1,-1,-1,-1,-1,-1,-1,-1,-1,-1,-1,-1,-1,-1,-1,-1,-1,-1,-1,-1,-1,-1,-1,-1,-1,-1,-1,-1],"split_conditions":[5.35E0,1.5286323E1,7.9E0,1.0550119E1,4.3E0,1.4900482E1,5.2E0,2.295E1,4E0,2.584295E4,7.05E0,3.9563143E-1,2.4863691E1,2.4410807E1,1.355E1,-1.3160571E-1,2.6714808E-1,2.4880115E4,2.2798197E4,9.827E3,2.5949857E4,2.225885E-1,-4.1118526E-1,5.365E1,3.8140383E-2,3.575766E-1,1.5904137E0,-4.1118526E-1,1.1E1,5.161E4,1.276E2,2.4080064E-2,-3.0371359E-2,1.4291668E-2,-6.09678E-2,2.5167152E-2,9.310664E-3,6.08831E-2,-1.62426E-2,4.671635E-2,-5E-2,-5.4030694E-2,2.4860008E-2,1.5184666E-2,-4.3202322E-2,-1.2615752E-2,7.8226976E-2,-6.0756933E-2,1.7690582E-2,-2.103247E-2,2.2885816E-2,-2.6907543E-2,4.535032E-2,1.4525393E-2,-7.368768E-2,-6.143945E-5,-5.6549132E-2,-2.0155702E-2,6.78944E-2,-6.912822E-2,2.522932E-2],"split_indices":[28,20,28,20,8,20,9,6,28,4,9,18,20,20,28,18,18,17,17,0,17,18,18,6,0,18,16,18,28,27,5,0,0,0,0,0,0,0,0,0,0,0,0,0,0,0,0,0,0,0,0,0,0,0,0,0,0,0,0,0,0],"split_type":[0,0,0,0,0,0,0,0,0,0,0,0,0,0,0,0,0,0,0,0,0,0,0,0,0,0,0,0,0,0,0,0,0,0,0,0,0,0,0,0,0,0,0,0,0,0,0,0,0,0,0,0,0,0,0,0,0,0,0,0,0],"sum_hessian":[1.063E3,7.6051636E2,3.0248364E2,4.7244296E2,2.880734E2,1.4544319E2,1.5704045E2,1.3104288E2,3.414001E2,2.545409E2,3.3532494E1,6.3098145E1,8.234505E1,1.1597237E2,4.106808E1,9.307051E1,3.797237E1,2.716041E2,6.9795975E1,2.3834703E2,1.6193855E1,2.6423298E1,7.109195E0,6.1673298E1,1.4248452E0,7.034107E1,1.2003979E1,9.045336E1,2.5519009E1,2.6498453E1,1.4569629E1,6.244474E0,8.6826035E1,3.400243E1,3.969938E0,1.259496E2,1.4565451E2,2.8346596E0,6.696132E1,2.3734703E2,1E0,3.219938E0,1.2973917E1,1.9043545E1,7.379752E0,1.219938E0,5.8892574E0,5.9028515E1,2.6447833E0,6.0966843E1,9.374227E0,2.939876E0,9.064102E0,1.9248452E0,8.852851E1,7.994474E0,1.7524536E1,2.4383732E1,2.1147215E0,1.2894783E1,1.6748452E0],"tree_param":{"num_deleted":"0","num_feature":"31","num_nodes":"61","size_leaf_vector":"1"}},{"base_weights":[-6.372855E-5,3.2452464E-1,-8.1491715E-1,5.6017105E-2,7.633346E-1,-6.6736495E-1,-1.2779717E0,-3.3080515E-1,2.0501065E-1,8.29647E-1,2.505734E-1,-1.1297085E0,-4.0543914E-1,-1.4598534E0,-5.568528E-1,5.131225E-1,-4.1765565E-1,3.180063E-1,-2.3298824E-1,8.764348E-1,1.3026139E-1,-4.0986422E-2,1.2065605E0,-1.174774E0,2.722522E-1,-5.412311E-1,2.3717003E-1,-7.8799325E-1,-1.5667363E0,-1.1628631E0,2.967046E-1,4.3162473E-2,-3.9669514E-2,-2.397785E-2,4.1951325E-2,6.7614266E-3,2.255415E-2,5.867366E-2,-1.5443449E-2,4.004265E-2,6.3667E-2,-5.199879E-2,2.3709422E-2,1.4464115E-2,-4.131725E-2,-1.2269382E-2,7.498303E-2,-6.035428E-2,1.8021785E-2,-3.3003204E-2,5.5259075E-2,-1.3999845E-2,-4.3284338E-2,-4.078757E-2,3.299975E-2,1.5961502E-2,-5.4862317E-2,-3.3630364E-5,-8.077125E-2,-6.719785E-2,-1.0018077E-2,4.879841E-2,-6.17042E-2],"categories":[],"categories_nodes":[],"categories_segments":[],"categories_sizes":[],"default_left":[0,0,0,0,0,0,0,0,0,0,0,0,0,0,0,0,0,0,0,0,0,0,0,0,0,0,0,0,0,0,0,0,0,0,0,0,0,0,0,0,0,0,0,0,0,0,0,0,0,0,0,0,0,0,0,0,0,0,0,0,0,0,0],"id":1,"left_children":[1,3,5,7,9,11,13,15,17,19,21,23,25,27,29,31,33,35,37,39,41,43,45,47,49,51,53,55,57,59,61,-1,-1,-1,-1,-1,-1,-1,-1,-1,-1,-1,-1,-1,-1,-1,-1,-1,-1,-1,-1,-1,-1,-1,-1,-1,-1,-1,-1,-1,-1,-1,-1],"loss_changes":[2.815708E2,8.965787E1,1.9867325E1,2.7350986E1,9.616287E0,2.7645706E1,8.655327E0,9.890532E0,1.701865E1,8.243423E0,9.670818E0,5.5869446E0,1.3191738E1,2.8609543E0,8.702478E0,6.525153E0,9.7565975E0,6.5691166E0,7.9172816E0,6.156479E0,7.4115095E0,7.3509073E0,3.8151464E0,4.4510345E0,3.376131E0,1.0258667E1,1.2474782E1,3.719481E0,3.6735916E0,1.4130831E0,9.008282E0,0E0,0E0,0E0,0E0,0E0,0E0,0E0,0E0,0E0,0E0,0E0,0E0,0E0,0E0,0E0,0E0,0E0,0E0,0E0,0E0,0E0,0E0,0E0,0E0,0E0,0E0,0E0,0E0,0E0,0E0,0E0,0E0],"parents":[2147483647,0,0,1,1,2,2,3,3,4,4,5,5,6,6,7,7,8,8,9,9,10,10,11,11,12,12,13,13,14,14,15,15,16,16,17,17,18,18,19,19,20,20,21,21,22,22,23,23,24,24,25,25,26,26,27,27,28,28,29,29,30,30],"right_children":[2,4,6,8,10,12,14,16,18,20,22,24,26,28,30,32,34,36,38,40,42,44,46,48,50,52,54,56,58,60,62,-1,-1,-1,-1,-1,-1,-1,-1,-1,-1,-1,-1,-1,-1,-1,-1,-1,-1,-1,-1,-1,-1,-1,-1,-1,-1,-1,-1,-1,-1,-1,-1],"split_conditions":[5.35E0,1.5286323E1,1.115E1,1.0550119E1,4.3E0,1.4559978E1,4.06E1,-8.2E0,4E0,2.584295E4,7.05E0,8.05E0,2.4863691E1,2.45E0,7.675815E-2,2.599895E4,2.6107293E4,2.503375E-5,2.2798197E4,2.5875E4,2.5949857E4,2.225885E-1,-4.1118526E-1,3.9563143E-1,2.500135E4,7.7E0,1.5904137E0,1.14E1,-1.3735E2,9.05E0,1.97E1,4.3162473E-2,-3.9669514E-2,-2.397785E-2,4.1951325E-2,6.7614266E-3,2.255415E-2,5.867366E-2,-1.5443449E-2,4.004265E-2,6.3667E-2,-5.199879E-2,2.3709422E-2,1.4464115E-2,-4.131725E-2,-1.2269382E-2,7.498303E-2,-6.035428E-2,1.8021785E-2,-3.3003204E-2,5.5259075E-2,-1.3999845E-2,-4.3284338E-2,-4.078757E-2,3.299975E-2,1.5961502E-2,-5.4862317E-2,-3.3630364E-5,-8.077125E-2,-6.719785E-2,-1.0018077E-2,4.879841E-2,-6.17042E-2],"split_indices":[28,20,28,20,8,20,5,5,28,4,9,9,20,8,14,4,17,15,17,27,17,18,18,18,3,28,16,7,5,9,28,0,0,0,0,0,0,0,0,0,0,0,0,0,0,0,0,0,0,0,0,0,0,0,0,0,0,0,0,0,0,0,0],"split_type":[0,0,0,0,0,0,0,0,0,0,0,0,0,0,0,0,0,0,0,0,0,0,0,0,0,0,0,0,0,0,0,0,0,0,0,0,0,0,0,0,0,0,0,0,0,0,0,0,0,0,0,0,0,0,0,0,0,0,0,0,0,0,0],"sum_hessian":[1.0625724E3,7.603118E2,3.022606E2,4.7238647E2,2.8792538E2,2.3107108E2,7.11895E1,1.3101654E2,3.4136993E2,2.5440646E2,3.3518906E1,8.236672E1,1.4870436E2,5.6032482E1,1.5157014E1,1.1767122E1,1.1924941E2,2.7158102E2,6.978893E1,2.3821696E2,1.61895E1,2.6418758E1,7.1001463E0,7.9958534E1,2.408188E0,1.2289315E2,2.5811214E1,8.839623E0,4.719286E1,8.651928E0,6.505085E0,9.547736E0,2.2193859E0,1.1424058E2,5.008839E0,1.1527272E2,1.5630829E2,2.832034E0,6.69569E1,2.0264534E2,3.5571617E1,3.2175891E0,1.2971912E1,1.9042448E1,7.3763103E0,1.2198895E0,5.8802567E0,7.851966E1,1.4388713E0,1.2342281E0,1.17396E0,6.9111374E1,5.378177E1,7.1290693E0,1.8682144E1,1.9228724E0,6.916751E0,1.4535474E0,4.573931E1,6.948296E0,1.7036324E0,4.756779E0,1.7483058E0],"tree_param":{"num_deleted":"0","num_feature":"31","num_nodes":"63","size_leaf_vector":"1"}},{"base_weights":[-1.5207312E-4,3.1493405E-1,-7.6183563E-1,3.4667756E-2,6.840077E-1,-5.0116324E-1,-1.0130422E0,-3.0573064E-1,1.8343435E-1,7.584262E-1,2.0883733E-1,-9.830362E-1,-1.16246626E-1,-1.1880049E0,-5.032584E-1,5.9003776E-1,-3.951106E-1,1.15075834E-1,8.10977E-1,9.896162E-1,6.16567E-1,2.8402666E-2,9.7867423E-1,-1.0431545E0,3.7446028E-1,-2.2899683E-1,5.045818E-1,3.2571923E-2,-1.2126181E0,-7.331708E-1,2.4356939E-1,4.472485E-2,-3.3225324E-2,-2.2730209E-2,4.0214583E-2,1.1637586E-2,-1.7115459E-2,6.5286094E-3,5.8983233E-2,2.7425393E-2,5.7437707E-2,2.4690688E-2,5.9524525E-2,1.2702993E-2,-2.8030643E-2,-1.3779244E-2,6.642068E-2,-5.452275E-2,2.41711E-2,-3.3670597E-2,5.9538078E-2,-1.7102798E-2,2.4172809E-2,5.0086617E-2,-1.1526988E-2,-6.526009E-2,-2.6968766E-2,-3.202634E-4,-4.717681E-2,3.6747035E-2,-3.0598154E-2],"categories":[],"categories_nodes":[],"categories_segments":[],"categories_sizes":[],"default_left":[0,0,0,0,0,0,0,0,0,0,0,0,0,0,0,0,0,0,0,0,0,0,0,0,0,0,0,0,0,0,0,0,0,0,0,0,0,0,0,0,0,0,0,0,0,0,0,0,0,0,0,0,0,0,0,0,0,0,0,0,0],"id":2,"left_children":[1,3,5,7,9,11,13,15,17,19,21,23,25,27,29,31,33,35,37,39,41,43,45,47,49,51,53,-1,55,57,59,-1,-1,-1,-1,-1,-1,-1,-1,-1,-1,-1,-1,-1,-1,-1,-1,-1,-1,-1,-1,-1,-1,-1,-1,-1,-1,-1,-1,-1,-1],"loss_changes":[2.5522803E2,7.779076E1,1.9870056E1,2.1762037E1,1.1321381E1,2.8579357E1,1.3449631E1,1.0700064E1,1.2728889E1,8.582779E0,6.270008E0,5.9860764E0,6.2149014E0,6.065262E0,7.386281E0,5.2779984E0,8.890654E0,1.4649889E1,7.16992E0,6.736206E0,1.1837189E1,5.161313E0,4.1293497E0,5.2870636E0,3.9184315E0,6.1607094E0,5.239573E0,0E0,6.4845886E0,4.939171E0,4.91909E0,0E0,0E0,0E0,0E0,0E0,0E0,0E0,0E0,0E0,0E0,0E0,0E0,0E0,0E0,0E0,0E0,0E0,0E0,0E0,0E0,0E0,0E0,0E0,0E0,0E0,0E0,0E0,0E0,0E0,0E0],"parents":[2147483647,0,0,1,1,2,2,3,3,4,4,5,5,6,6,7,7,8,8,9,9,10,10,11,11,12,12,13,13,14,14,15,15,16,16,17,17,18,18,19,19,20,20,21,21,22,22,23,23,24,24,25,25,26,26,28,28,29,29,30,30],"right_children":[2,4,6,8,10,12,14,16,18,20,22,24,26,28,30,32,34,36,38,40,42,44,46,48,50,52,54,-1,56,58,60,-1,-1,-1,-1,-1,-1,-1,-1,-1,-1,-1,-1,-1,-1,-1,-1,-1,-1,-1,-1,-1,-1,-1,-1,-1,-1,-1,-1,-1,-1],"split_conditions":[5.25E0,1.4615516E1,7.9E0,1.0550119E1,4.3E0,1.4900482E1,5.2E0,-8.2E0,3.125338E-1,-1.1320014E-1,8.3E0,5.365E1,2.4863691E1,-1.3735E2,2.2404829E-1,2.599895E4,2.6107293E4,3.95E0,1.7582742E0,1.6612087E0,1.8627445E-1,2.225885E-1,4.4E2,3.9563143E-1,2.51954E4,3.575766E-1,6.311643E-2,3.2571923E-2,4.15E1,9.25E0,1.475E1,4.472485E-2,-3.3225324E-2,-2.2730209E-2,4.0214583E-2,1.1637586E-2,-1.7115459E-2,6.5286094E-3,5.8983233E-2,2.7425393E-2,5.7437707E-2,2.4690688E-2,5.9524525E-2,1.2702993E-2,-2.8030643E-2,-1.3779244E-2,6.642068E-2,-5.452275E-2,2.41711E-2,-3.3670597E-2,5.9538078E-2,-1.7102798E-2,2.4172809E-2,5.0086617E-2,-1.1526988E-2,-6.526009E-2,-2.6968766E-2,-3.202634E-4,-4.717681E-2,3.6747035E-2,-3.0598154E-2],"split_indices":[28,20,28,20,28,20,9,5,18,18,9,6,20,5,14,4,17,28,16,16,14,18,0,18,3,18,18,0,5,28,28,0,0,0,0,0,0,0,0,0,0,0,0,0,0,0,0,0,0,0,0,0,0,0,0,0,0,0,0,0,0],"split_type":[0,0,0,0,0,0,0,0,0,0,0,0,0,0,0,0,0,0,0,0,0,0,0,0,0,0,0,0,0,0,0,0,0,0,0,0,0,0,0,0,0,0,0,0,0,0,0,0,0,0,0,0,0,0,0,0,0,0,0,0,0],"sum_hessian":[1.0614684E3,7.5127466E2,3.1019373E2,4.2763336E2,3.236413E2,1.5369858E2,1.5649516E2,1.297325E2,2.9790088E2,2.7930246E2,4.433885E1,6.7563126E1,8.613545E1,1.15517914E2,4.097724E1,1.1262091E1,1.18470406E2,2.6970514E2,2.8195734E1,1.03937614E2,1.7536482E2,3.6759937E1,7.578913E0,6.491965E1,2.6434808E0,7.3430664E1,1.2704784E1,1.1890486E0,1.14328865E2,3.1345692E1,9.631548E0,9.293653E0,1.9684377E0,1.13463295E2,5.0071096E0,2.1490546E2,5.4799694E1,1.0384861E1,1.7810873E1,2.8734978E1,7.520264E1,1.4599846E2,2.9366375E1,2.698891E1,9.771026E0,1.698754E0,5.8801594E0,6.3245686E1,1.6739614E0,1.2342018E0,1.4092791E0,6.3822556E1,9.60811E0,7.362781E0,5.342003E0,9.968202E1,1.4646848E1,7.2677355E0,2.4077957E1,6.207343E0,3.4242048E0],"tree_param":{"num_deleted":"0","num_feature":"31","num_nodes":"61","size_leaf_vector":"1"}},{"base_weights":[6.772407E-5,2.9426616E-1,-7.4074024E-1,4.992448E-2,6.946127E-1,-6.026103E-1,-1.1760342E0,-2.9856524E-1,1.840901E-1,7.443186E-1,1.3864969E-1,-1.0278583E0,-3.6278838E-1,-1.3453012E0,-5.086113E-1,-4.645386E-1,1.0960714E-1,2.8584462E-1,-2.1030906E-1,8.036721E-1,2.7696863E-1,3.8042596E-1,-7.9941666E-1,-1.0710766E0,2.9483226E-1,-4.8805973E-1,2.2902347E-1,-7.0848256E-1,-1.447635E0,-1.085064E0,2.9869556E-1,-1.5596199E-2,-5.0308425E-2,1.4226155E-2,-5.730283E-2,1.2405391E-2,4.519925E-2,1.1532414E-2,-2.2169674E-2,3.751425E-2,6.641962E-2,-8.4905647E-4,5.6364745E-2,-1.7610831E-2,3.8592484E-2,-5.320487E-2,-2.2769242E-3,-5.507356E-2,1.768177E-2,-3.1228742E-2,5.512783E-2,-1.6909627E-2,-4.8062693E-2,-3.819449E-2,3.1372424E-2,1.671112E-2,-5.0263852E-2,-1.8659669E-4,-7.464304E-2,-6.311009E-2,-8.2257325E-3,5.2109934E-2,-5.0462898E-2],"categories":[],"categories_nodes":[],"categories_segments":[],"categories_sizes":[],"default_left":[0,0,0,0,0,0,0,0,0,0,0,0,0,0,0,0,0,0,0,0,0,0,0,0,0,0,0,0,0,0,0,0,0,0,0,0,0,0,0,0,0,0,0,0,0,0,0,0,0,0,0,0,0,0,0,0,0,0,0,0,0,0,0],"id":3,"left_children":[1,3,5,7,9,11,13,15,17,19,21,23,25,27,29,31,33,35,37,39,41,43,45,47,49,51,53,55,57,59,61,-1,-1,-1,-1,-1,-1,-1,-1,-1,-1,-1,-1,-1,-1,-1,-1,-1,-1,-1,-1,-1,-1,-1,-1,-1,-1,-1,-1,-1,-1,-1,-1],"loss_changes":[2.3142065E2,7.431039E1,1.7439102E1,2.2171974E1,7.8547974E0,2.3202637E1,7.410736E0,8.984779E0,1.3791794E1,7.103485E0,5.942905E0,5.049774E0,1.1184595E1,2.6596603E0,7.818465E0,7.451502E0,8.876694E0,6.130228E0,7.3739066E0,5.5534363E0,7.839669E0,6.134912E0,1.0324838E0,3.8715134E0,3.2168474E0,8.438999E0,1.1070533E1,3.364997E0,3.113388E0,1.3595829E0,8.338346E0,0E0,0E0,0E0,0E0,0E0,0E0,0E0,0E0,0E0,0E0,0E0,0E0,0E0,0E0,0E0,0E0,0E0,0E0,0E0,0E0,0E0,0E0,0E0,0E0,0E0,0E0,0E0,0E0,0E0,0E0,0E0,0E0],"parents":[2147483647,0,0,1,1,2,2,3,3,4,4,5,5,6,6,7,7,8,8,9,9,10,10,11,11,12,12,13,13,14,14,15,15,16,16,17,17,18,18,19,19,20,20,21,21,22,22,23,23,24,24,25,25,26,26,27,27,28,28,29,29,30,30],"right_children":[2,4,6,8,10,12,14,16,18,20,22,24,26,28,30,32,34,36,38,40,42,44,46,48,50,52,54,56,58,60,62,-1,-1,-1,-1,-1,-1,-1,-1,-1,-1,-1,-1,-1,-1,-1,-1,-1,-1,-1,-1,-1,-1,-1,-1,-1,-1,-1,-1,-1,-1,-1,-1],"split_conditions":[5.35E0,1.5286323E1,1.115E1,1.0550119E1,2.578165E4,1.4559978E1,4.06E1,2.295E1,4E0,4.3E0,2.1770794E1,8.05E0,2.4863691E1,2.45E0,7.675815E-2,3.65E0,2.6714808E-1,5.365E1,2.467475E4,2.520925E0,7.05E0,4.4E0,1.545E1,3.9563143E-1,2.500135E4,7.7E0,1.5904137E0,1.14E1,-1.3735E2,9.05E0,1.59E1,-1.5596199E-2,-5.0308425E-2,1.4226155E-2,-5.730283E-2,1.2405391E-2,4.519925E-2,1.1532414E-2,-2.2169674E-2,3.751425E-2,6.641962E-2,-8.4905647E-4,5.6364745E-2,-1.7610831E-2,3.8592484E-2,-5.320487E-2,-2.2769242E-3,-5.507356E-2,1.768177E-2,-3.1228742E-2,5.512783E-2,-1.6909627E-2,-4.8062693E-2,-3.819449E-2,3.1372424E-2,1.671112E-2,-5.0263852E-2,-1.8659669E-4,-7.464304E-2,-6.311009E-2,-8.2257325E-3,5.2109934E-2,-5.0462898E-2],"split_indices":[28,20,28,20,4,20,5,6,28,8,20,9,20,8,14,28,18,6,4,16,9,7,7,18,3,8,16,7,5,9,28,0,0,0,0,0,0,0,0,0,0,0,0,0,0,0,0,0,0,0,0,0,0,0,0,0,0,0,0,0,0,0,0],"split_type":[0,0,0,0,0,0,0,0,0,0,0,0,0,0,0,0,0,0,0,0,0,0,0,0,0,0,0,0,0,0,0,0,0,0,0,0,0,0,0,0,0,0,0,0,0,0,0,0,0,0,0,0,0,0,0,0,0,0,0,0,0,0,0],"sum_hessian":[1.0598325E3,7.590087E2,3.0082376E2,4.7203714E2,2.8697162E2,2.3016946E2,7.0654305E1,1.3087341E2,3.4116373E2,2.6310947E2,2.3862131E1,8.181343E1,1.4835603E2,5.555036E1,1.5103945E1,9.294251E1,3.7930904E1,2.7141437E2,6.974935E1,2.328215E2,3.0287968E1,1.9444883E1,4.4172473E0,7.9409004E1,2.4044235E0,1.2258356E2,2.577248E1,8.787767E0,4.6762592E1,8.61115E0,6.4927945E0,7.3740585E1,1.920193E1,3.3971966E1,3.958941E0,2.5711893E2,1.429546E1,2.412302E1,4.562633E1,2.135264E2,1.929511E1,2.3235651E1,7.052316E0,6.8059998E0,1.2638884E1,2.9648235E0,1.4524239E0,7.7972435E1,1.4365686E0,1.2305148E0,1.1739087E0,9.4400345E1,2.8183212E1,7.117562E0,1.8654919E1,1.9191742E0,6.868593E0,1.4530814E0,4.5309513E1,6.91029E0,1.7008603E0,4.2691755E0,2.223619E0],"tree_param":{"num_deleted":"0","num_feature":"31","num_nodes":"63","size_leaf_vector":"1"}},{"base_weights":[-1.4058172E-4,2.8001672E-1,-7.073541E-1,4.731926E-2,6.620752E-1,-5.745256E-1,-1.1276944E0,-2.8469616E-1,1.7509584E-1,8.8054276E-1,5.330371E-1,-7.84929E-1,-1.3028109E-1,-1.290203E0,-4.8925304E-1,9.2052794E-1,-3.3698267E-1,2.718801E-1,-2.0002136E-1,4.061078E-1,1.0613453E0,4.1149697E-1,1.0782913E0,-6.857506E-1,-1.3210198E0,-2.112225E-1,6.288024E-2,-6.7894614E-1,-1.3888475E0,-1.042918E0,2.8444773E-1,7.2999425E-2,-1.9422842E-2,-1.9450802E-2,3.886186E-2,2.1534167E-2,6.6324556E-3,5.6694545E-2,-1.3610828E-2,-1.0878808E-2,3.8008817E-2,5.8283508E-2,2.7625993E-2,2.4713952E-2,-8.035684E-3,5.792096E-2,-1.2318079E-2,-4.6714295E-2,-1.9890694E-2,-7.091947E-2,1.2930005E-2,-5.5281114E-2,-3.412524E-3,-6.2987514E-2,-3.4225215E-3,-1.8107069E-4,-7.163077E-2,-6.0678583E-2,-7.9686195E-3,4.5762137E-2,-5.738872E-2],"categories":[],"categories_nodes":[],"categories_segments":[],"categories_sizes":[],"default_left":[0,0,0,0,0,0,0,0,0,0,0,0,0,0,0,0,0,0,0,0,0,0,0,0,0,0,0,0,0,0,0,0,0,0,0,0,0,0,0,0,0,0,0,0,0,0,0,0,0,0,0,0,0,0,0,0,0,0,0,0,0],"id":4,"left_children":[1,3,5,7,9,11,13,15,17,19,21,23,25,27,29,31,33,35,37,39,41,43,45,47,49,51,-1,53,55,57,59,-1,-1,-1,-1,-1,-1,-1,-1,-1,-1,-1,-1,-1,-1,-1,-1,-1,-1,-1,-1,-1,-1,-1,-1,-1,-1,-1,-1,-1,-1],"loss_changes":[2.0996106E2,6.744917E1,1.6140137E1,2.0107672E1,7.627823E0,2.1444588E1,6.7519913E0,8.61403E0,1.2471752E1,8.586258E0,1.1690868E1,7.400757E0,8.723297E0,2.4404907E0,7.1716957E0,4.6253233E0,7.6668015E0,5.9635506E0,7.119484E0,6.928573E0,3.3634796E0,7.248638E0,3.7624702E0,9.212013E0,3.9522705E0,9.130889E0,0E0,3.3721747E0,2.8661194E0,1.2494316E0,7.8083067E0,0E0,0E0,0E0,0E0,0E0,0E0,0E0,0E0,0E0,0E0,0E0,0E0,0E0,0E0,0E0,0E0,0E0,0E0,0E0,0E0,0E0,0E0,0E0,0E0,0E0,0E0,0E0,0E0,0E0,0E0],"parents":[2147483647,0,0,1,1,2,2,3,3,4,4,5,5,6,6,7,7,8,8,9,9,10,10,11,11,12,12,13,13,14,14,15,15,16,16,17,17,18,18,19,19,20,20,21,21,22,22,23,23,24,24,25,25,27,27,28,28,29,29,30,30],"right_children":[2,4,6,8,10,12,14,16,18,20,22,24,26,28,30,32,34,36,38,40,42,44,46,48,50,52,-1,54,56,58,60,-1,-1,-1,-1,-1,-1,-1,-1,-1,-1,-1,-1,-1,-1,-1,-1,-1,-1,-1,-1,-1,-1,-1,-1,-1,-1,-1,-1,-1,-1],"split_conditions":[5.35E0,1.5286323E1,1.115E1,1.0550119E1,-1.2405405E-1,1.8819336E1,4.06E1,-1.41E1,4E0,1.6612087E0,1.8627445E-1,7.8E0,6.7860395E-1,2.45E0,7.675815E-2,2.599895E4,2.6107293E4,2.4880115E4,2.2798197E4,-3.0546156E-1,2.6725E4,2.57263E4,4.85E0,1.4401169E1,7.55E0,1.5006633E0,6.288024E-2,6.6466564E-5,-1.3735E2,9.05E0,1.97E1,7.2999425E-2,-1.9422842E-2,-1.9450802E-2,3.886186E-2,2.1534167E-2,6.6324556E-3,5.6694545E-2,-1.3610828E-2,-1.0878808E-2,3.8008817E-2,5.8283508E-2,2.7625993E-2,2.4713952E-2,-8.035684E-3,5.792096E-2,-1.2318079E-2,-4.6714295E-2,-1.9890694E-2,-7.091947E-2,1.2930005E-2,-5.5281114E-2,-3.412524E-3,-6.2987514E-2,-3.4225215E-3,-1.8107069E-4,-7.163077E-2,-6.0678583E-2,-7.9686195E-3,4.5762137E-2,-5.738872E-2],"split_indices":[28,20,28,20,18,20,5,5,28,16,14,8,18,8,14,4,17,17,17,18,27,4,8,20,9,16,0,15,5,9,28,0,0,0,0,0,0,0,0,0,0,0,0,0,0,0,0,0,0,0,0,0,0,0,0,0,0,0,0,0,0],"split_type":[0,0,0,0,0,0,0,0,0,0,0,0,0,0,0,0,0,0,0,0,0,0,0,0,0,0,0,0,0,0,0,0,0,0,0,0,0,0,0,0,0,0,0,0,0,0,0,0,0,0,0,0,0,0,0,0,0,0,0,0,0],"sum_hessian":[1.0577084E3,7.580261E2,2.9968225E2,4.717965E2,2.862296E2,2.2952016E2,7.0162094E1,1.3077136E2,3.4102515E2,1.04122116E2,1.8210748E2,1.5523213E2,7.4288025E1,5.511283E1,1.5049266E1,4.746947E0,1.2602442E2,2.7130164E2,6.97235E1,2.9626604E1,7.4495514E1,1.5034863E2,3.175886E1,1.3292061E2,2.2311531E1,7.0995384E1,3.2926357E0,8.753569E0,4.635926E1,8.569161E0,6.4801044E0,3.279879E0,1.4670676E0,1.2102356E2,5.000862E0,1.25764534E2,1.455371E2,2.824825E0,6.689868E1,1.0868129E1,1.8758474E1,6.0749176E1,1.374634E1,1.314656E2,1.8883018E1,3.0065687E1,1.6931722E0,7.01367E1,6.2783905E1,2.1112219E1,1.1993122E0,8.856712E0,6.213867E1,3.940873E0,4.8126955E0,1.453074E0,4.490619E1,6.8689275E0,1.7002338E0,4.7493196E0,1.7307848E0],"tree_param":{"num_deleted":"0","num_feature":"31","num_nodes":"61","size_leaf_vector":"1"}},{"base_weights":[-1.6728317E-4,2.7232245E-1,-6.6346693E-1,6.354877E-2,6.4861375E-1,-4.273507E-1,-8.9299923E-1,-2.6214966E-1,1.834752E-1,7.162912E-1,2.1407607E-1,-8.5753036E-1,-8.773052E-2,-1.0551851E0,-4.2462248E-1,5.567891E-1,-3.4396136E-1,2.712814E-1,-1.2489923E-1,8.563267E-1,5.055454E-1,-3.1056356E-1,5.003936E-1,-9.159914E-1,4.2456245E-1,-2.3401867E-1,3.2142508E-1,-1.1749681E0,-6.042457E-1,-5.996718E-1,3.982627E-1,4.2231087E-2,-3.1412266E-2,-1.9906946E-2,3.7298296E-2,3.2313769E-3,2.0934762E-2,-1.0836193E-2,3.939238E-2,2.5941838E-2,4.9198996E-2,1.1400183E-2,3.710295E-2,1.4843053E-2,-4.8407923E-2,2.4353787E-3,4.906548E-2,-4.8516013E-2,1.7952064E-2,-3.0616228E-2,6.036059E-2,5.1307708E-2,-1.5430507E-2,3.850391E-2,-2.0548264E-2,1.769583E-2,-6.0623616E-2,-1.5375145E-2,-7.375509E-2,-3.4564778E-3,-4.446628E-2,5.4178596E-2,-2.0112023E-2],"categories":[],"categories_nodes":[],"categories_segments":[],"categories_sizes":[],"default_left":[0,0,0,0,0,0,0,0,0,0,0,0,0,0,0,0,0,0,0,0,0,0,0,0,0,0,0,0,0,0,0,0,0,0,0,0,0,0,0,0,0,0,0,0,0,0,0,0,0,0,0,0,0,0,0,0,0,0,0,0,0,0,0],"id":5,"left_children":[1,3,5,7,9,11,13,15,17,19,21,23,25,27,29,31,33,35,37,39,41,43,45,47,49,51,53,55,57,59,61,-1,-1,-1,-1,-1,-1,-1,-1,-1,-1,-1,-1,-1,-1,-1,-1,-1,-1,-1,-1,-1,-1,-1,-1,-1,-1,-1,-1,-1,-1,-1,-1],"loss_changes":[1.9108598E2,5.882968E1,1.630278E1,1.8917116E1,7.7074738E0,2.2375162E1,1.1340385E1,8.9293585E0,9.610045E0,6.379959E0,5.7804236E0,5.4617424E0,5.2817426E0,5.4799423E0,6.229399E0,4.701233E0,7.335162E0,8.368546E0,6.797592E0,5.4025116E0,6.040539E0,5.814876E0,5.2977915E0,4.8541756E0,3.688938E0,6.394149E0,7.9827933E0,5.5602036E0,6.293789E0,5.269784E0,4.7675095E0,0E0,0E0,0E0,0E0,0E0,0E0,0E0,0E0,0E0,0E0,0E0,0E0,0E0,0E0,0E0,0E0,0E0,0E0,0E0,0E0,0E0,0E0,0E0,0E0,0E0,0E0,0E0,0E0,0E0,0E0,0E0,0E0],"parents":[2147483647,0,0,1,1,2,2,3,3,4,4,5,5,6,6,7,7,8,8,9,9,10,10,11,11,12,12,13,13,14,14,15,15,16,16,17,17,18,18,19,19,20,20,21,21,22,22,23,23,24,24,25,25,26,26,27,27,28,28,29,29,30,30],"right_children":[2,4,6,8,10,12,14,16,18,20,22,24,26,28,30,32,34,36,38,40,42,44,46,48,50,52,54,56,58,60,62,-1,-1,-1,-1,-1,-1,-1,-1,-1,-1,-1,-1,-1,-1,-1,-1,-1,-1,-1,-1,-1,-1,-1,-1,-1,-1,-1,-1,-1,-1,-1,-1],"split_conditions":[5.25E0,1.5663322E1,7.9E0,1.0550119E1,4.3E0,1.4900482E1,5.2E0,-8.2E0,3.8E0,5.361796E-2,5.36E2,5.365E1,2.1628508E1,2.4410807E1,2.8276452E-1,2.599895E4,2.6107293E4,2.503375E-5,3.464386E-1,1.6612087E0,9.2E2,5.428788E-2,1.8692923E0,7.45E0,2.51954E4,2.06E2,6.311643E-2,-4.1118526E-1,1.59E1,1.01E1,2.083E3,4.2231087E-2,-3.1412266E-2,-1.9906946E-2,3.7298296E-2,3.2313769E-3,2.0934762E-2,-1.0836193E-2,3.939238E-2,2.5941838E-2,4.9198996E-2,1.1400183E-2,3.710295E-2,1.4843053E-2,-4.8407923E-2,2.4353787E-3,4.906548E-2,-4.8516013E-2,1.7952064E-2,-3.0616228E-2,6.036059E-2,5.1307708E-2,-1.5430507E-2,3.850391E-2,-2.0548264E-2,1.769583E-2,-6.0623616E-2,-1.5375145E-2,-7.375509E-2,-3.4564778E-3,-4.446628E-2,5.4178596E-2,-2.0112023E-2],"split_indices":[28,20,28,20,28,20,9,5,28,18,0,6,20,20,14,4,17,15,18,16,0,14,16,9,3,0,18,18,8,28,0,0,0,0,0,0,0,0,0,0,0,0,0,0,0,0,0,0,0,0,0,0,0,0,0,0,0,0,0,0,0,0,0],"split_type":[0,0,0,0,0,0,0,0,0,0,0,0,0,0,0,0,0,0,0,0,0,0,0,0,0,0,0,0,0,0,0,0,0,0,0,0,0,0,0,0,0,0,0,0,0,0,0,0,0,0,0,0,0,0,0,0,0,0,0,0,0,0,0],"sum_hessian":[1.0552291E3,7.4837787E2,3.0685123E2,4.8207968E2,2.6629822E2,1.5266698E2,1.5418425E2,1.2941798E2,3.526617E2,2.298514E2,3.6446823E1,6.66808E1,8.598617E1,1.13596176E2,4.0588074E1,1.1227225E1,1.1819076E2,2.745943E2,7.80674E1,1.3625197E2,9.359942E1,1.2838064E1,2.360876E1,6.4045975E1,2.6348283E0,6.3655155E1,2.233101E1,8.8486046E1,2.5110128E1,3.369213E1,6.895943E0,9.264286E0,1.9629397E0,1.1319865E2,4.9921093E0,1.1492448E2,1.5966983E2,7.162437E1,6.4430323E0,3.878268E1,9.746929E1,4.396813E1,4.9631287E1,6.95877E0,5.879294E0,1.2742254E1,1.0866507E1,6.165774E1,2.3882334E0,1.2269454E0,1.4078829E0,2.844375E0,6.081078E1,1.3816028E1,8.514983E0,1.9166303E0,8.656942E1,1.9737658E1,5.372471E0,1.2335876E1,2.1356253E1,3.5247757E0,3.3711672E0],"tree_param":{"num_deleted":"0","num_feature":"31","num_nodes":"63","size_leaf_vector":"1"}},{"base_weights":[-5.3874348E-5,2.545224E-1,-6.465945E-1,4.3120954E-2,6.033388E-1,-5.211259E-1,-1.0474147E0,-2.5684628E-1,1.5843278E-1,8.045258E-1,4.8033616E-1,-7.165056E-1,-1.114274E-1,-1.2031884E0,-4.420269E-1,8.730293E-1,-3.0574796E-1,2.4605262E-1,-1.8112813E-1,3.5996372E-1,9.7351956E-1,3.674461E-1,9.903599E-1,-6.229222E-1,-1.227677E0,-1.8936165E-1,6.1078764E-2,-6.1668867E-1,-1.2993712E0,-9.7123766E-1,2.905669E-1,6.9080494E-2,-1.7938565E-2,-1.18782045E-2,-5.912241E-2,1.0502915E-2,4.1922174E-2,6.2628455E-2,-1.2166525E-2,3.067187E-2,-1.9331299E-2,5.4522075E-2,2.7172092E-2,1.7310718E-4,2.5306335E-2,5.687955E-2,7.941585E-3,-4.271784E-2,-1.7871065E-2,-6.6045426E-2,1.2560673E-2,-5.211993E-2,-2.6933674E-3,1.8743731E-2,-4.5437437E-2,8.723601E-4,-6.7110874E-2,-5.6954563E-2,-6.3327076E-3,4.4510603E-2,-5.4417003E-2],"categories":[],"categories_nodes":[],"categories_segments":[],"categories_sizes":[],"default_left":[0,0,0,0,0,0,0,0,0,0,0,0,0,0,0,0,0,0,0,0,0,0,0,0,0,0,0,0,0,0,0,0,0,0,0,0,0,0,0,0,0,0,0,0,0,0,0,0,0,0,0,0,0,0,0,0,0,0,0,0,0],"id":6,"left_children":[1,3,5,7,9,11,13,15,17,19,21,23,25,27,29,31,33,35,37,39,41,43,45,47,49,51,-1,53,55,57,59,-1,-1,-1,-1,-1,-1,-1,-1,-1,-1,-1,-1,-1,-1,-1,-1,-1,-1,-1,-1,-1,-1,-1,-1,-1,-1,-1,-1,-1,-1],"loss_changes":[1.7355038E2,5.5760773E1,1.4434914E1,1.6371437E1,6.6763306E0,1.8239552E1,6.0718994E0,7.5314713E0,1.0209374E1,7.6736603E0,9.976803E0,6.6392975E0,8.031389E0,2.3077698E0,6.4511614E0,4.0751853E0,7.296674E0,5.6235714E0,6.605494E0,6.104472E0,3.269371E0,7.5012474E0,3.7319164E0,7.8580513E0,3.4921532E0,8.24274E0,0E0,3.1405942E0,2.6439438E0,1.1980515E0,7.1233478E0,0E0,0E0,0E0,0E0,0E0,0E0,0E0,0E0,0E0,0E0,0E0,0E0,0E0,0E0,0E0,0E0,0E0,0E0,0E0,0E0,0E0,0E0,0E0,0E0,0E0,0E0,0E0,0E0,0E0,0E0],"parents":[2147483647,0,0,1,1,2,2,3,3,4,4,5,5,6,6,7,7,8,8,9,9,10,10,11,11,12,12,13,13,14,14,15,15,16,16,17,17,18,18,19,19,20,20,21,21,22,22,23,23,24,24,25,25,27,27,28,28,29,29,30,30],"right_children":[2,4,6,8,10,12,14,16,18,20,22,24,26,28,30,32,34,36,38,40,42,44,46,48,50,52,-1,54,56,58,60,-1,-1,-1,-1,-1,-1,-1,-1,-1,-1,-1,-1,-1,-1,-1,-1,-1,-1,-1,-1,-1,-1,-1,-1,-1,-1,-1,-1,-1,-1],"split_conditions":[5.35E0,1.5286323E1,1.115E1,1.0550119E1,-1.1320014E-1,1.8819336E1,4.06E1,-1.41E1,4E0,1.6612087E0,1.8627445E-1,7.8E0,6.7860395E-1,2.45E0,7.675815E-2,2.599895E4,2.6229515E0,5.365E1,2.260355E4,1.6146201E0,2.5094281E4,4.5E2,1E0,1.4401169E1,7.55E0,1.5006633E0,6.1078764E-2,1.14E1,-1.3735E2,9.05E0,1.97E1,6.9080494E-2,-1.7938565E-2,-1.18782045E-2,-5.912241E-2,1.0502915E-2,4.1922174E-2,6.2628455E-2,-1.2166525E-2,3.067187E-2,-1.9331299E-2,5.4522075E-2,2.7172092E-2,1.7310718E-4,2.5306335E-2,5.687955E-2,7.941585E-3,-4.271784E-2,-1.7871065E-2,-6.6045426E-2,1.2560673E-2,-5.211993E-2,-2.6933674E-3,1.8743731E-2,-4.5437437E-2,8.723601E-4,-6.7110874E-2,-5.6954563E-2,-6.3327076E-3,4.4510603E-2,-5.4417003E-2],"split_indices":[28,20,28,20,18,20,5,5,28,16,14,8,18,8,14,4,16,6,3,16,17,0,2,20,9,16,0,7,5,9,28,0,0,0,0,0,0,0,0,0,0,0,0,0,0,0,0,0,0,0,0,0,0,0,0,0,0,0,0,0,0],"split_type":[0,0,0,0,0,0,0,0,0,0,0,0,0,0,0,0,0,0,0,0,0,0,0,0,0,0,0,0,0,0,0,0,0,0,0,0,0,0,0,0,0,0,0,0,0,0,0,0,0,0,0,0,0,0,0,0,0,0,0,0,0],"sum_hessian":[1.0524156E3,7.5553076E2,2.9688498E2,4.711264E2,2.8440433E2,2.2785861E2,6.902636E1,1.3047832E2,3.406481E2,1.0580521E2,1.7859912E2,1.5377603E2,7.408257E1,5.411455E1,1.4911808E1,4.713766E0,1.2576455E2,2.7099603E2,6.965207E1,3.0004408E1,7.58008E1,1.4764043E2,3.095869E1,1.318551E2,2.1920929E1,7.080111E1,3.281457E0,8.668394E0,4.5446156E1,8.46855E0,6.4432583E0,3.2502134E0,1.4635527E0,1.1786851E2,7.896047E0,2.5675018E2,1.4245834E1,2.100513E0,6.755156E1,2.2532705E1,7.4717026E0,5.8391037E1,1.740976E1,4.1015434E1,1.0662499E2,2.5988987E1,4.9697046E0,6.92621E1,6.259301E1,2.0721441E1,1.1994873E0,8.787019E0,6.2014095E1,1.9077842E0,6.7606096E0,1.4507947E0,4.399536E1,6.773645E0,1.6949042E0,4.7374787E0,1.7057797E0],"tree_param":{"num_deleted":"0","num_feature":"31","num_nodes":"61","size_leaf_vector":"1"}},{"base_weights":[-7.610352E-5,2.4753726E-1,-6.0691E-1,5.7911128E-2,5.9131724E-1,-3.8592112E-1,-8.236572E-1,-2.3668051E-1,1.6627778E-1,6.5633357E-1,1.7674515E-1,-7.8627217E-1,-7.332698E-2,-9.7841346E-1,-3.8075218E-1,-3.9448997E-1,1.5207067E-1,3.3269888E-1,2.4673697E-2,5.919766E-1,1.0871044E0,-3.1430858E-1,4.4661412E-1,-8.432864E-1,4.400559E-1,7.132269E-2,-4.7443107E-1,-1.0938407E0,-5.4788387E-1,-7.2171813E-1,3.309331E-2,-1.2416238E-2,-4.6818264E-2,1.6191056E-2,-5.3878058E-2,3.8043108E-2,1.2013239E-2,-6.505062E-2,3.3392606E-3,2.6214754E-2,5.1538892E-2,1.7487349E-2,6.6600114E-2,1.3527924E-2,-4.7199965E-2,6.5686996E-3,5.5977475E-2,-4.4436075E-2,2.6762659E-2,-2.87006E-2,5.9588093E-2,-2.5427395E-2,1.3875968E-2,-3.680344E-2,3.7504185E-2,1.0002761E-2,-5.6803703E-2,-1.3203715E-2,-6.977915E-2,2.2993362E-2,-4.4046335E-2,2.0664519E-2,-3.781852E-2],"categories":[],"categories_nodes":[],"categories_segments":[],"categories_sizes":[],"default_left":[0,0,0,0,0,0,0,0,0,0,0,0,0,0,0,0,0,0,0,0,0,0,0,0,0,0,0,0,0,0,0,0,0,0,0,0,0,0,0,0,0,0,0,0,0,0,0,0,0,0,0,0,0,0,0,0,0,0,0,0,0,0,0],"id":7,"left_children":[1,3,5,7,9,11,13,15,17,19,21,23,25,27,29,31,33,35,37,39,41,43,45,47,49,51,53,55,57,59,61,-1,-1,-1,-1,-1,-1,-1,-1,-1,-1,-1,-1,-1,-1,-1,-1,-1,-1,-1,-1,-1,-1,-1,-1,-1,-1,-1,-1,-1,-1,-1,-1],"loss_changes":[1.5797328E2,4.8640438E1,1.4275391E1,1.54372835E1,7.035698E0,1.905737E1,1.0109581E1,8.042987E0,8.315436E0,5.7048264E0,5.088487E0,5.0462914E0,5.0741916E0,5.0009613E0,5.8425765E0,7.1200895E0,8.436039E0,6.2403164E0,1.0800705E1,5.441574E0,4.6930237E0,5.3485875E0,5.052193E0,4.499241E0,3.4494472E0,7.8792043E0,7.970844E0,5.0286407E0,5.845611E0,4.6664743E0,6.1905947E0,0E0,0E0,0E0,0E0,0E0,0E0,0E0,0E0,0E0,0E0,0E0,0E0,0E0,0E0,0E0,0E0,0E0,0E0,0E0,0E0,0E0,0E0,0E0,0E0,0E0,0E0,0E0,0E0,0E0,0E0,0E0,0E0],"parents":[2147483647,0,0,1,1,2,2,3,3,4,4,5,5,6,6,7,7,8,8,9,9,10,10,11,11,12,12,13,13,14,14,15,15,16,16,17,17,18,18,19,19,20,20,21,21,22,22,23,23,24,24,25,25,26,26,27,27,28,28,29,29,30,30],"right_children":[2,4,6,8,10,12,14,16,18,20,22,24,26,28,30,32,34,36,38,40,42,44,46,48,50,52,54,56,58,60,62,-1,-1,-1,-1,-1,-1,-1,-1,-1,-1,-1,-1,-1,-1,-1,-1,-1,-1,-1,-1,-1,-1,-1,-1,-1,-1,-1,-1,-1,-1,-1,-1],"split_conditions":[5.25E0,1.5663322E1,7.9E0,1.0550119E1,4.3E0,1.4900482E1,5.2E0,2.295E1,2.49048E4,5.73E1,5.36E2,5.365E1,2.4889936E4,2.4410807E1,1.9368308E0,3.65E0,2.6714808E-1,7E-1,1.2945327E0,3.0475E4,2.360765E4,5.428788E-2,6.25E0,3.9563143E-1,2.51954E4,1.6146201E0,2.591995E4,-4.004475E-1,1.59E1,-8.350395E-2,1.505E1,-1.2416238E-2,-4.6818264E-2,1.6191056E-2,-5.3878058E-2,3.8043108E-2,1.2013239E-2,-6.505062E-2,3.3392606E-3,2.6214754E-2,5.1538892E-2,1.7487349E-2,6.6600114E-2,1.3527924E-2,-4.7199965E-2,6.5686996E-3,5.5977475E-2,-4.4436075E-2,2.6762659E-2,-2.87006E-2,5.9588093E-2,-2.5427395E-2,1.3875968E-2,-3.680344E-2,3.7504185E-2,1.0002761E-2,-5.6803703E-2,-1.3203715E-2,-6.977915E-2,2.2993362E-2,-4.4046335E-2,2.0664519E-2,-3.781852E-2],"split_indices":[28,20,28,20,28,20,9,6,3,5,0,6,17,20,16,28,18,8,16,27,4,14,9,18,3,16,3,18,8,14,28,0,0,0,0,0,0,0,0,0,0,0,0,0,0,0,0,0,0,0,0,0,0,0,0,0,0,0,0,0,0,0,0],"split_type":[0,0,0,0,0,0,0,0,0,0,0,0,0,0,0,0,0,0,0,0,0,0,0,0,0,0,0,0,0,0,0,0,0,0,0,0,0,0,0,0,0,0,0,0,0,0,0,0,0,0,0,0,0,0,0,0,0,0,0,0,0,0,0],"sum_hessian":[1.0493318E3,7.456626E2,3.0366913E2,4.8133224E2,2.6433035E2,1.5174008E2,1.5192905E2,1.2912515E2,3.522071E2,2.2799179E2,3.6338566E1,6.586675E1,8.587334E1,1.11693085E2,4.0235966E1,9.183211E1,3.7293045E1,1.6129483E2,1.9091226E2,2.0042293E2,2.7568855E1,1.282944E1,2.3509127E1,6.3239006E1,2.6277466E0,6.3717247E1,2.2156086E1,8.686377E1,2.4829313E1,2.1652561E1,1.8583405E1,7.347205E1,1.8360052E1,3.3368855E1,3.924188E0,2.735456E1,1.3394026E2,4.9573884E0,1.8595488E2,1.7554185E2,2.4881077E1,7.4789085E0,2.0089947E1,6.947147E0,5.8822927E0,1.6823359E1,6.6857667E0,6.1565205E1,1.6738026E0,1.219288E0,1.4084587E0,1.6329306E1,4.738794E1,1.8584164E1,3.5719228E0,2.6275342E0,8.423624E1,1.9584082E1,5.2452307E0,2.3468285E0,1.9305733E1,1.2864497E1,5.718908E0],"tree_param":{"num_deleted":"0","num_feature":"31","num_nodes":"63","size_leaf_vector":"1"}},{"base_weights":[-1.7578229E-4,2.3126046E-1,-5.924695E-1,3.87287E-2,5.5095214E-1,-4.728225E-1,-9.791699E-1,-2.3332146E-1,1.4319229E-1,5.9586906E-1,5.6773227E-2,-6.569429E-1,-9.015851E-2,-1.1278154E0,-4.0833837E-1,8.3754265E-1,-2.7954036E-1,2.2483477E-1,-1.7305596E-1,5.169453E-1,9.0333563E-1,2.8790557E-1,-8.208122E-1,-5.688361E-1,-1.1448483E0,-1.6495134E-1,5.9286248E-2,-5.5882794E-1,-1.2228743E0,-9.173609E-1,2.908341E-1,6.663331E-2,-1.7556032E-2,3.2953214E-2,-1.687361E-2,9.515169E-3,3.976487E-2,-1.3547339E-2,3.627352E-2,2.3120537E-2,5.4393243E-2,1.1384593E-2,5.623706E-2,-1.9122137E-2,3.263712E-2,-2.927914E-3,-5.4262776E-2,-4.3306183E-2,-1.9207677E-2,-6.1828643E-2,1.3060554E-2,-4.8817556E-2,-1.8695192E-3,-5.6450065E-2,8.7165413E-4,1.8070786E-3,-6.3261084E-2,-6.647654E-3,-5.4881472E-2,4.2987987E-2,-5.1791873E-2],"categories":[],"categories_nodes":[],"categories_segments":[],"categories_sizes":[],"default_left":[0,0,0,0,0,0,0,0,0,0,0,0,0,0,0,0,0,0,0,0,0,0,0,0,0,0,0,0,0,0,0,0,0,0,0,0,0,0,0,0,0,0,0,0,0,0,0,0,0,0,0,0,0,0,0,0,0,0,0,0,0],"id":8,"left_children":[1,3,5,7,9,11,13,15,17,19,21,23,25,27,29,31,33,35,37,39,41,43,45,47,49,51,-1,53,55,57,59,-1,-1,-1,-1,-1,-1,-1,-1,-1,-1,-1,-1,-1,-1,-1,-1,-1,-1,-1,-1,-1,-1,-1,-1,-1,-1,-1,-1,-1,-1],"loss_changes":[1.4367137E2,4.6364773E1,1.3161644E1,1.3431166E1,6.2521896E0,1.592207E1,5.3644333E0,6.7267027E0,8.849802E0,5.8299637E0,5.246552E0,5.9251328E0,7.337688E0,2.231842E0,5.872337E0,3.809457E0,7.100913E0,5.2001715E0,6.4051304E0,5.998722E0,7.472637E0,5.2123213E0,1.026751E0,6.8909492E0,3.213564E0,7.3719344E0,0E0,3.1598654E0,2.4631424E0,1.1769643E0,6.472243E0,0E0,0E0,0E0,0E0,0E0,0E0,0E0,0E0,0E0,0E0,0E0,0E0,0E0,0E0,0E0,0E0,0E0,0E0,0E0,0E0,0E0,0E0,0E0,0E0,0E0,0E0,0E0,0E0,0E0,0E0],"parents":[2147483647,0,0,1,1,2,2,3,3,4,4,5,5,6,6,7,7,8,8,9,9,10,10,11,11,12,12,13,13,14,14,15,15,16,16,17,17,18,18,19,19,20,20,21,21,22,22,23,23,24,24,25,25,27,27,28,28,29,29,30,30],"right_children":[2,4,6,8,10,12,14,16,18,20,22,24,26,28,30,32,34,36,38,40,42,44,46,48,50,52,-1,54,56,58,60,-1,-1,-1,-1,-1,-1,-1,-1,-1,-1,-1,-1,-1,-1,-1,-1,-1,-1,-1,-1,-1,-1,-1,-1,-1,-1,-1,-1,-1,-1],"split_conditions":[5.35E0,1.5286323E1,1.115E1,1.0550119E1,2.578165E4,1.8819336E1,4.06E1,-1.41E1,4E0,3.87E1,2.1770794E1,7.8E0,6.7860395E-1,2.45E0,7.675815E-2,2.599895E4,-1.3160571E-1,5.365E1,3.464386E-1,2.520925E0,1.6761937E0,4.4E0,1.45E0,2.77E1,7.55E0,1.5006633E0,5.9286248E-2,6.6466564E-5,-1.3735E2,4.855E1,1.97E1,6.663331E-2,-1.7556032E-2,3.2953214E-2,-1.687361E-2,9.515169E-3,3.976487E-2,-1.3547339E-2,3.627352E-2,2.3120537E-2,5.4393243E-2,1.1384593E-2,5.623706E-2,-1.9122137E-2,3.263712E-2,-2.927914E-3,-5.4262776E-2,-4.3306183E-2,-1.9207677E-2,-6.1828643E-2,1.3060554E-2,-4.8817556E-2,-1.8695192E-3,-5.6450065E-2,8.7165413E-4,1.8070786E-3,-6.3261084E-2,-6.647654E-3,-5.4881472E-2,4.2987987E-2,-5.1791873E-2],"split_indices":[28,20,28,20,4,20,5,5,28,5,20,8,18,8,14,4,18,6,18,16,16,7,9,6,9,16,0,15,5,5,28,0,0,0,0,0,0,0,0,0,0,0,0,0,0,0,0,0,0,0,0,0,0,0,0,0,0,0,0,0,0],"split_type":[0,0,0,0,0,0,0,0,0,0,0,0,0,0,0,0,0,0,0,0,0,0,0,0,0,0,0,0,0,0,0,0,0,0,0,0,0,0,0,0,0,0,0,0,0,0,0,0,0,0,0,0,0,0,0,0,0,0,0,0,0],"sum_hessian":[1.046098E3,7.526232E2,2.9347476E2,4.70431E2,2.821922E2,2.2582585E2,6.764892E1,1.3017865E2,3.4025235E2,2.5849158E2,2.3700626E1,1.519822E2,7.384366E1,5.289836E1,1.4750557E1,4.6777086E0,1.25500946E2,2.7066635E2,6.958602E1,2.0782593E2,5.0665653E1,1.9291658E1,4.4089684E0,1.3056958E2,2.1412611E1,7.057711E1,3.266544E0,8.557161E0,4.43412E1,8.355435E0,6.3951216E0,3.2166889E0,1.4610199E0,6.692545E0,1.18808395E2,2.5647495E2,1.4191407E1,6.337953E1,6.206488E0,1.913573E2,1.6468626E1,1.3005701E1,3.765995E1,6.782073E0,1.2509585E1,1.4502071E0,2.9587612E0,4.8618134E1,8.195145E1,2.0214458E1,1.1981523E0,8.684169E0,6.1892944E1,3.8191624E0,4.7379994E0,1.4476645E0,4.2893536E1,1.886067E0,6.4693685E0,4.7220674E0,1.6730545E0],"tree_param":{"num_deleted":"0","num_feature":"31","num_nodes":"61","size_leaf_vector":"1"}},{"base_weights":[-2.3705393E-4,2.2495829E-1,-5.5644745E-1,2.3174027E-2,4.9503258E-1,-4.4160143E-1,-9.451394E-1,-1.0609803E-2,7.588056E-1,5.5694294E-1,1.0620805E-1,-7.5949466E-1,-2.1830563E-1,-1.0893046E0,-3.9510706E-1,-3.5835895E-1,5.5793088E-2,2.0181474E-1,1.3172855E0,7.488549E-1,4.3134695E-1,-5.2753504E-2,8.071364E-1,-8.258687E-1,6.0973823E-1,-2.6347372E-1,1.0422816E0,-5.393665E-1,-1.1821084E0,-8.8484126E-1,2.763416E-1,-5.8507747E-3,-4.0525567E-2,1.3281028E-2,-5.3712297E-3,6.0377367E-2,-7.615266E-3,1.8839857E-2,7.371046E-2,3.877713E-2,-4.3774564E-2,1.651049E-2,4.5686815E-2,8.31057E-3,-3.0733043E-2,-1.4731842E-2,5.6543488E-2,-4.48334E-2,-1.3890995E-3,-1.365975E-2,5.203892E-2,-5.614946E-3,-3.364577E-2,6.358214E-2,8.304835E-3,-5.4742675E-2,8.3558104E-4,1.7535173E-3,-6.1186504E-2,-5.2412998E-2,-4.665339E-3,4.1323666E-2,-5.0540287E-2],"categories":[],"categories_nodes":[],"categories_segments":[],"categories_sizes":[],"default_left":[0,0,0,0,0,0,0,0,0,0,0,0,0,0,0,0,0,0,0,0,0,0,0,0,0,0,0,0,0,0,0,0,0,0,0,0,0,0,0,0,0,0,0,0,0,0,0,0,0,0,0,0,0,0,0,0,0,0,0,0,0,0,0],"id":9,"left_children":[1,3,5,7,9,11,13,15,17,19,21,23,25,27,29,31,33,35,37,39,41,43,45,47,49,51,53,55,57,59,61,-1,-1,-1,-1,-1,-1,-1,-1,-1,-1,-1,-1,-1,-1,-1,-1,-1,-1,-1,-1,-1,-1,-1,-1,-1,-1,-1,-1,-1,-1,-1,-1],"loss_changes":[1.308515E2,4.051266E1,1.3022163E1,1.0611644E1,7.5944977E0,1.6464172E1,4.94503E0,9.462451E0,5.5660124E0,6.282219E0,5.046112E0,9.251808E0,8.190019E0,2.0746155E0,5.3898E0,7.074361E0,1.1817098E1,3.9474819E0,7.994232E-1,5.3192673E0,7.894371E0,4.721473E0,3.3160872E0,5.18668E0,2.1970406E0,8.280972E0,7.957277E-1,2.956585E0,2.3039398E0,1.1033349E0,6.047933E0,0E0,0E0,0E0,0E0,0E0,0E0,0E0,0E0,0E0,0E0,0E0,0E0,0E0,0E0,0E0,0E0,0E0,0E0,0E0,0E0,0E0,0E0,0E0,0E0,0E0,0E0,0E0,0E0,0E0,0E0,0E0,0E0],"parents":[2147483647,0,0,1,1,2,2,3,3,4,4,5,5,6,6,7,7,8,8,9,9,10,10,11,11,12,12,13,13,14,14,15,15,16,16,17,17,18,18,19,19,20,20,21,21,22,22,23,23,24,24,25,25,26,26,27,27,28,28,29,29,30,30],"right_children":[2,4,6,8,10,12,14,16,18,20,22,24,26,28,30,32,34,36,38,40,42,44,46,48,50,52,54,56,58,60,62,-1,-1,-1,-1,-1,-1,-1,-1,-1,-1,-1,-1,-1,-1,-1,-1,-1,-1,-1,-1,-1,-1,-1,-1,-1,-1,-1,-1,-1,-1,-1,-1],"split_conditions":[5.25E0,1.4615516E1,1.115E1,5.31E1,4.3E0,1.5243632E1,4.06E1,9.629463E0,7.06E2,-1.0409198E-1,8.3E0,7.45E0,3.265E1,2.45E0,7.675815E-2,5.44E2,-1.1421369E-2,1.5E0,1.9776113E-2,4.6957136E-4,1.8627445E-1,2.225885E-1,4.4E2,3.515098E-1,2.955E1,7.7E0,5.915E3,6.6466564E-5,-1.3735E2,9.05E0,1.97E1,-5.8507747E-3,-4.0525567E-2,1.3281028E-2,-5.3712297E-3,6.0377367E-2,-7.615266E-3,1.8839857E-2,7.371046E-2,3.877713E-2,-4.3774564E-2,1.651049E-2,4.5686815E-2,8.31057E-3,-3.0733043E-2,-1.4731842E-2,5.6543488E-2,-4.48334E-2,-1.3890995E-3,-1.365975E-2,5.203892E-2,-5.614946E-3,-3.364577E-2,6.358214E-2,8.304835E-3,-5.4742675E-2,8.3558104E-4,1.7535173E-3,-6.1186504E-2,-5.2412998E-2,-4.665339E-3,4.1323666E-2,-5.0540287E-2],"split_indices":[28,20,28,6,28,20,5,20,0,18,9,9,7,8,14,0,18,9,14,15,14,18,0,18,6,8,0,15,5,9,28,0,0,0,0,0,0,0,0,0,0,0,0,0,0,0,0,0,0,0,0,0,0,0,0,0,0,0,0,0,0,0,0],"split_type":[0,0,0,0,0,0,0,0,0,0,0,0,0,0,0,0,0,0,0,0,0,0,0,0,0,0,0,0,0,0,0,0,0,0,0,0,0,0,0,0,0,0,0,0,0,0,0,0,0,0,0,0,0,0,0,0,0,0,0,0,0,0,0],"sum_hessian":[1.0426733E3,7.426065E2,3.000668E2,4.2566183E2,3.1694467E2,2.3327707E2,6.678976E1,4.07914E2,1.7747847E1,2.73038E2,4.3906685E1,9.525986E1,1.380172E2,5.2142582E1,1.4647174E1,6.469777E1,3.4321622E2,9.56736E0,8.180486E0,1.06042114E2,1.6699588E2,3.6543766E1,7.362919E0,9.123409E1,4.0257688E0,1.340066E2,4.010598E0,8.51228E0,4.3630302E1,8.28589E0,6.3612847E0,4.3003025E1,2.1694748E1,1.498922E2,1.9332404E2,1.8638544E0,7.703506E0,1.6561071E0,6.524379E0,1.04842125E2,1.1999859E0,1.3944463E2,2.7551264E1,2.6803242E1,9.740526E0,1.6925342E0,5.670385E0,8.368663E1,7.5474634E0,1.4407545E0,2.5850143E0,9.8801285E1,3.520532E1,2.8208396E0,1.1897584E0,3.7737036E0,4.738577E0,1.4478234E0,4.2182476E1,6.5991106E0,1.6867785E0,4.707279E0,1.654006E0],"tree_param":{"num_deleted":"0","num_feature":"31","num_nodes":"63","size_leaf_vector":"1"}},{"base_weights":[-2.204452E-4,2.1039572E-1,-5.438958E-1,4.2045046E-2,5.187304E-1,-4.3162593E-1,-9.1328704E-1,-2.1376143E-1,1.3583677E-1,6.318266E-1,3.0422986E-1,-6.0534066E-1,-7.399142E-2,-1.0532255E0,-3.8268402E-1,-4.1958424E-1,2.970507E-2,2.1632174E-1,-1.3196912E-1,3.838659E-1,7.893089E-1,4.1917154E-1,-6.030174E-1,-5.2088183E-1,-1.0801649E0,-3.1378114E-1,3.0503607E-1,-5.208522E-1,-1.1440411E0,-8.5453105E-1,2.6262835E-1,2.7661651E-2,-2.6082814E-2,1.0618335E-2,-2.877283E-2,1.1734029E-3,1.772474E-2,-1.6831411E-2,9.602322E-3,4.7804983E-3,3.5317954E-2,-1.34552615E-2,4.194047E-2,1.5430875E-2,5.50326E-2,-6.2063266E-2,2.8891457E-2,-4.022131E-2,-1.7306333E-2,-5.8574505E-2,1.36323515E-2,5.082334E-3,-2.7796749E-2,3.814475E-3,5.0463058E-2,2.1297574E-2,-4.061853E-2,1.7015506E-3,-5.9252154E-2,-1.1105932E-2,-5.4768648E-2,4.378608E-2,-4.2249035E-2],"categories":[],"categories_nodes":[],"categories_segments":[],"categories_sizes":[],"default_left":[0,0,0,0,0,0,0,0,0,0,0,0,0,0,0,0,0,0,0,0,0,0,0,0,0,0,0,0,0,0,0,0,0,0,0,0,0,0,0,0,0,0,0,0,0,0,0,0,0,0,0,0,0,0,0,0,0,0,0,0,0,0,0],"id":10,"left_children":[1,3,5,7,9,11,13,15,17,19,21,23,25,27,29,31,33,35,37,39,41,43,45,47,49,51,53,55,57,59,61,-1,-1,-1,-1,-1,-1,-1,-1,-1,-1,-1,-1,-1,-1,-1,-1,-1,-1,-1,-1,-1,-1,-1,-1,-1,-1,-1,-1,-1,-1,-1,-1],"loss_changes":[1.1922873E2,3.8935387E1,1.1663147E1,1.1702225E1,6.235634E0,1.3925343E1,4.56229E0,6.5728955E0,7.715179E0,6.435486E0,9.992844E0,5.501404E0,6.8808866E0,1.9349022E0,4.952061E0,7.33967E0,6.855015E0,7.30863E0,5.5705905E0,6.3442907E0,5.705353E0,5.950474E0,8.941982E0,6.1784286E0,3.025484E0,4.7060657E0,4.664772E0,2.9581718E0,2.1599388E0,1.158534E0,5.712594E0,0E0,0E0,0E0,0E0,0E0,0E0,0E0,0E0,0E0,0E0,0E0,0E0,0E0,0E0,0E0,0E0,0E0,0E0,0E0,0E0,0E0,0E0,0E0,0E0,0E0,0E0,0E0,0E0,0E0,0E0,0E0,0E0],"parents":[2147483647,0,0,1,1,2,2,3,3,4,4,5,5,6,6,7,7,8,8,9,9,10,10,11,11,12,12,13,13,14,14,15,15,16,16,17,17,18,18,19,19,20,20,21,21,22,22,23,23,24,24,25,25,26,26,27,27,28,28,29,29,30,30],"right_children":[2,4,6,8,10,12,14,16,18,20,22,24,26,28,30,32,34,36,38,40,42,44,46,48,50,52,54,56,58,60,62,-1,-1,-1,-1,-1,-1,-1,-1,-1,-1,-1,-1,-1,-1,-1,-1,-1,-1,-1,-1,-1,-1,-1,-1,-1,-1,-1,-1,-1,-1,-1,-1],"split_conditions":[5.35E0,1.5663322E1,1.115E1,1.0550119E1,1.10799186E-1,1.8819336E1,4.06E1,1.9E1,3.8E0,1.7196251E0,4.5E0,7.8E0,1.425E3,2.45E0,7.675815E-2,-1.2921391E-1,9.55E0,2.503375E-5,2.875E1,4.2765323E-2,1.5872668E1,2.4863691E1,4.0195286E-1,2.77E1,7.55E0,6.9E0,2.273452E0,1.14E1,-1.3735E2,5.27E1,1.59E1,2.7661651E-2,-2.6082814E-2,1.0618335E-2,-2.877283E-2,1.1734029E-3,1.772474E-2,-1.6831411E-2,9.602322E-3,4.7804983E-3,3.5317954E-2,-1.34552615E-2,4.194047E-2,1.5430875E-2,5.50326E-2,-6.2063266E-2,2.8891457E-2,-4.022131E-2,-1.7306333E-2,-5.8574505E-2,1.36323515E-2,5.082334E-3,-2.7796749E-2,3.814475E-3,5.0463058E-2,2.1297574E-2,-4.061853E-2,1.7015506E-3,-5.9252154E-2,-1.1105932E-2,-5.4768648E-2,4.378608E-2,-4.2249035E-2],"split_indices":[28,20,28,20,18,20,5,6,28,16,8,8,0,8,14,18,5,15,6,14,20,20,18,6,9,28,16,7,5,5,28,0,0,0,0,0,0,0,0,0,0,0,0,0,0,0,0,0,0,0,0,0,0,0,0,0,0,0,0,0,0,0,0],"split_type":[0,0,0,0,0,0,0,0,0,0,0,0,0,0,0,0,0,0,0,0,0,0,0,0,0,0,0,0,0,0,0,0,0,0,0,0,0,0,0,0,0,0,0,0,0,0,0,0,0,0,0,0,0,0,0,0,0,0,0,0,0,0,0],"sum_hessian":[1.0392377E3,7.494996E2,2.897381E2,4.855343E2,2.639653E2,2.238664E2,6.58717E1,1.2991808E2,3.556162E2,1.7156265E2,9.240263E1,1.5021127E2,7.365512E1,5.134522E1,1.4526478E1,7.0009636E1,5.9908443E1,2.7358627E2,8.202994E1,6.797363E1,1.0358903E2,8.248975E1,9.912884E0,1.293078E2,2.0903473E1,4.521943E1,2.843569E1,8.463913E0,4.2881306E1,8.203751E0,6.322727E0,6.2284217E0,6.3781216E1,4.6516888E1,1.3391555E1,1.1468527E2,1.58901E2,5.0250877E1,3.1779064E1,3.657661E1,3.1397017E1,4.4300346E0,9.9159E1,7.222571E1,1.0264046E1,6.4016333E0,3.5112503E0,4.79327E1,8.13751E1,1.9707125E1,1.1963484E0,1.6865686E1,2.8353743E1,2.23004E1,6.1352906E0,1.8839632E0,6.57995E0,1.4479756E0,4.143333E1,2.7927346E0,5.411016E0,4.204677E0,2.11805E0],"tree_param":{"num_deleted":"0","num_feature":"31","num_nodes":"63","size_leaf_vector":"1"}},{"base_weights":[-3.39272E-4,2.0050637E-1,-5.2115434E-1,3.9966878E-2,4.9571696E-1,-4.1235355E-1,-8.8267374E-1,-2.0349368E-1,1.2917821E-1,6.042996E-1,2.903517E-1,-7.4239296E-1,-2.3397315E-1,-1.1304513E0,-5.691144E-1,-8.389513E-2,-6.0999215E-1,2.8564987E-1,-4.438304E-3,3.287756E-1,7.360647E-1,4.0041828E-1,-5.7656044E-1,-8.280263E-1,-9.217332E-2,-2.7538386E-1,9.9226934E-1,-1.1824161E0,-1.1754435E-3,-6.856219E-1,3.8677934E-1,-5.195836E-4,-5.3227413E-2,-3.9734636E-2,4.7493156E-2,4.6330895E-2,1.088393E-2,-6.308245E-2,1.8454295E-3,3.3354305E-2,5.180248E-3,-8.288815E-3,3.8784947E-2,1.4703582E-2,5.305506E-2,-5.9412975E-2,2.7819816E-2,-4.4590853E-2,1.1279228E-2,4.603527E-2,-3.141566E-2,4.2525884E-2,-1.5799694E-2,6.0765732E-2,7.4641146E-3,-9.578655E-3,-6.1172288E-2,-1.736246E-2,-4.909457E-2,-1.7708747E-2,5.2431125E-2],"categories":[],"categories_nodes":[],"categories_segments":[],"categories_sizes":[],"default_left":[0,0,0,0,0,0,0,0,0,0,0,0,0,0,0,0,0,0,0,0,0,0,0,0,0,0,0,0,0,0,0,0,0,0,0,0,0,0,0,0,0,0,0,0,0,0,0,0,0,0,0,0,0,0,0,0,0,0,0,0,0],"id":11,"left_children":[1,3,5,7,9,11,13,15,17,19,21,23,25,27,29,31,33,35,37,39,41,43,45,47,49,51,53,55,-1,57,59,-1,-1,-1,-1,-1,-1,-1,-1,-1,-1,-1,-1,-1,-1,-1,-1,-1,-1,-1,-1,-1,-1,-1,-1,-1,-1,-1,-1,-1,-1],"loss_changes":[1.0852704E2,3.546618E1,1.0993576E1,1.0584001E1,5.704056E0,1.300367E1,4.478218E0,6.305086E0,7.451601E0,5.985985E0,9.115892E0,4.270691E0,7.725563E0,2.0320053E0,3.730052E0,7.354221E0,9.271975E0,6.9500456E0,1.0089385E1,4.296342E0,4.2478065E0,5.5348644E0,8.21544E0,4.829315E0,6.123288E0,6.7955456E0,7.608433E-1,1.1553001E0,0E0,2.475276E0,2.3424706E0,0E0,0E0,0E0,0E0,0E0,0E0,0E0,0E0,0E0,0E0,0E0,0E0,0E0,0E0,0E0,0E0,0E0,0E0,0E0,0E0,0E0,0E0,0E0,0E0,0E0,0E0,0E0,0E0,0E0,0E0],"parents":[2147483647,0,0,1,1,2,2,3,3,4,4,5,5,6,6,7,7,8,8,9,9,10,10,11,11,12,12,13,13,14,14,15,15,16,16,17,17,18,18,19,19,20,20,21,21,22,22,23,23,24,24,25,25,26,26,27,27,29,29,30,30],"right_children":[2,4,6,8,10,12,14,16,18,20,22,24,26,28,30,32,34,36,38,40,42,44,46,48,50,52,54,56,-1,58,60,-1,-1,-1,-1,-1,-1,-1,-1,-1,-1,-1,-1,-1,-1,-1,-1,-1,-1,-1,-1,-1,-1,-1,-1,-1,-1,-1,-1,-1,-1],"split_conditions":[5.35E0,1.5663322E1,1.115E1,1.0550119E1,1.10799186E-1,1.4559978E1,3.3E0,3.65E0,2.49048E4,1.6780921E0,4.5E0,2.595575E4,3.265E1,6.7860395E-1,1.051E2,2.6390507E0,1.4498783E-4,-5.9657134E-3,1.2945327E0,1.8339268E1,1.5872668E1,2.4863691E1,4.0195286E-1,3.515098E-1,2.6060547E4,2.06E2,5.915E3,2.255455E4,-1.1754435E-3,2.4613037E4,1.7760129E0,-5.195836E-4,-5.3227413E-2,-3.9734636E-2,4.7493156E-2,4.6330895E-2,1.088393E-2,-6.308245E-2,1.8454295E-3,3.3354305E-2,5.180248E-3,-8.288815E-3,3.8784947E-2,1.4703582E-2,5.305506E-2,-5.9412975E-2,2.7819816E-2,-4.4590853E-2,1.1279228E-2,4.603527E-2,-3.141566E-2,4.2525884E-2,-1.5799694E-2,6.0765732E-2,7.4641146E-3,-9.578655E-3,-6.1172288E-2,-1.736246E-2,-4.909457E-2,-1.7708747E-2,5.2431125E-2],"split_indices":[28,20,28,20,18,20,9,28,3,16,8,3,7,18,5,16,15,14,16,20,20,20,18,18,17,0,0,3,0,17,16,0,0,0,0,0,0,0,0,0,0,0,0,0,0,0,0,0,0,0,0,0,0,0,0,0,0,0,0,0,0],"split_type":[0,0,0,0,0,0,0,0,0,0,0,0,0,0,0,0,0,0,0,0,0,0,0,0,0,0,0,0,0,0,0,0,0,0,0,0,0,0,0,0,0,0,0,0,0,0,0,0,0,0,0,0,0,0,0,0,0,0,0,0,0],"sum_hessian":[1.0355103E3,7.477609E2,2.8774936E2,4.850951E2,2.6266586E2,2.228287E2,6.492066E1,1.2974254E2,3.5535254E2,1.7054901E2,9.211684E1,7.707068E1,1.4575803E2,3.480902E1,3.011164E1,1.0118008E2,2.8562462E1,1.6315361E2,1.9219893E2,5.6306297E1,1.14242714E2,8.221642E1,9.900413E0,6.786011E1,9.210572E0,1.4174661E2,4.0114164E0,3.318308E1,1.625943E0,2.7092283E1,3.0193577E0,9.506519E1,6.1148796E0,2.5977081E1,2.5853794E0,1.443158E1,1.4872203E2,5.1799984E0,1.8701894E2,2.1716099E1,3.4590202E1,4.67541E0,1.095673E2,7.206207E1,1.0154349E1,6.3975E0,3.502912E0,6.413087E1,3.7292335E0,2.939661E0,6.2709117E0,4.2403574E0,1.3750626E2,2.8228455E0,1.188571E0,1.5448555E0,3.1638222E1,1.3661452E1,1.3430832E1,1.643865E0,1.3754926E0],"tree_param":{"num_deleted":"0","num_feature":"31","num_nodes":"61","size_leaf_vector":"1"}},{"base_weights":[-3.1813025E-4,1.9494496E-1,-4.8883945E-1,4.450562E-2,4.7300822E-1,-6.1020297E-1,-1.607258E-1,-1.3335878E-1,1.570524E-1,5.297668E-1,1.16595104E-1,-3.8149995E-1,-8.3677334E-1,1.268537E-1,-4.8778242E-1,-1.8068182E-1,7.405091E-1,2.1509616E-1,-2.590296E-1,4.701094E-1,9.3755865E-1,-3.4154156E-1,3.7271914E-1,-6.6903996E-1,-6.102966E-2,-9.411778E-1,-4.4856775E-1,-1.2737249E-1,7.8479487E-1,-8.045261E-1,3.6670465E-2,-6.196767E-3,-4.484037E-2,-2.2513725E-2,5.2274503E-2,7.901955E-3,3.240249E-2,-5.0021976E-2,2.3341468E-2,1.943784E-2,4.049135E-2,1.0792043E-2,5.923412E-2,1.1042898E-2,-4.7022536E-2,2.7724875E-2,-2.881426E-2,-3.6677152E-2,4.698888E-2,4.187788E-2,-9.150161E-3,2.823104E-2,-4.892235E-2,-9.367698E-3,-6.274431E-2,2.2214426E-2,-2.9944623E-2,6.426385E-2,-3.5012107E-2,-5.8473933E-2,-1.0802535E-2,2.7827946E-2,-3.0877635E-2],"categories":[],"categories_nodes":[],"categories_segments":[],"categories_sizes":[],"default_left":[0,0,0,0,0,0,0,0,0,0,0,0,0,0,0,0,0,0,0,0,0,0,0,0,0,0,0,0,0,0,0,0,0,0,0,0,0,0,0,0,0,0,0,0,0,0,0,0,0,0,0,0,0,0,0,0,0,0,0,0,0,0,0],"id":12,"left_children":[1,3,5,7,9,11,13,15,17,19,21,23,25,27,29,31,33,35,37,39,41,43,45,47,49,51,53,55,57,59,61,-1,-1,-1,-1,-1,-1,-1,-1,-1,-1,-1,-1,-1,-1,-1,-1,-1,-1,-1,-1,-1,-1,-1,-1,-1,-1,-1,-1,-1,-1,-1,-1],"loss_changes":[9.8629395E1,3.0879967E1,1.1659447E1,9.638815E0,5.182522E0,1.0830757E1,7.6878967E0,7.8562374E0,7.173488E0,4.9927406E0,4.4565167E0,9.996232E0,3.9249115E0,7.4492497E0,6.3656845E0,7.1203237E0,4.025881E0,6.300267E0,2.0128183E1,5.125416E0,4.6487236E0,4.8396583E0,4.4844112E0,6.6367397E0,5.9197917E0,5.2448044E0,4.955116E0,9.040573E0,1.0105215E1,4.863943E0,5.5539465E0,0E0,0E0,0E0,0E0,0E0,0E0,0E0,0E0,0E0,0E0,0E0,0E0,0E0,0E0,0E0,0E0,0E0,0E0,0E0,0E0,0E0,0E0,0E0,0E0,0E0,0E0,0E0,0E0,0E0,0E0,0E0,0E0],"parents":[2147483647,0,0,1,1,2,2,3,3,4,4,5,5,6,6,7,7,8,8,9,9,10,10,11,11,12,12,13,13,14,14,15,15,16,16,17,17,18,18,19,19,20,20,21,21,22,22,23,23,24,24,25,25,26,26,27,27,28,28,29,29,30,30],"right_children":[2,4,6,8,10,12,14,16,18,20,22,24,26,28,30,32,34,36,38,40,42,44,46,48,50,52,54,56,58,60,62,-1,-1,-1,-1,-1,-1,-1,-1,-1,-1,-1,-1,-1,-1,-1,-1,-1,-1,-1,-1,-1,-1,-1,-1,-1,-1,-1,-1,-1,-1,-1,-1],"split_conditions":[5.25E0,1.5663322E1,5.05E0,1.1316344E1,4.3E0,7.8E0,2.46207E4,2.614985E4,2.59149E4,5.73E1,5.36E2,1.5096606E1,2.4410807E1,6.95E0,9.05E0,2.6390507E0,9.414634E0,4.43E1,2.6064195E4,1.745E1,2.360765E4,5.428788E-2,1.71E1,5.365E1,2.94E2,-4.1118526E-1,1.59E1,6.9E0,1.815E1,2.54316E4,1.025E1,-6.196767E-3,-4.484037E-2,-2.2513725E-2,5.2274503E-2,7.901955E-3,3.240249E-2,-5.0021976E-2,2.3341468E-2,1.943784E-2,4.049135E-2,1.0792043E-2,5.923412E-2,1.1042898E-2,-4.7022536E-2,2.7724875E-2,-2.881426E-2,-3.6677152E-2,4.698888E-2,4.187788E-2,-9.150161E-3,2.823104E-2,-4.892235E-2,-9.367698E-3,-6.274431E-2,2.2214426E-2,-2.9944623E-2,6.426385E-2,-3.5012107E-2,-5.8473933E-2,-1.0802535E-2,2.7827946E-2,-3.0877635E-2],"split_indices":[28,20,9,20,28,28,3,3,4,5,0,20,20,7,9,16,20,6,17,7,4,14,7,6,0,18,8,28,28,3,28,0,0,0,0,0,0,0,0,0,0,0,0,0,0,0,0,0,0,0,0,0,0,0,0,0,0,0,0,0,0,0,0],"split_type":[0,0,0,0,0,0,0,0,0,0,0,0,0,0,0,0,0,0,0,0,0,0,0,0,0,0,0,0,0,0,0,0,0,0,0,0,0,0,0,0,0,0,0,0,0,0,0,0,0,0,0,0,0,0,0,0,0,0,0,0,0,0,0],"sum_hessian":[1.0319585E3,7.3769934E2,2.942592E2,4.794595E2,2.5823984E2,2.1417856E2,8.008062E1,1.8573946E2,2.9372006E2,2.2234512E2,3.5894707E1,1.0792326E2,1.0625529E2,4.293776E1,3.7142857E1,1.7695021E2,8.789242E0,2.5818597E2,3.5534092E1,1.9584679E2,2.6498335E1,1.2751758E1,2.3142948E1,5.631094E1,5.1612328E1,8.261286E1,2.3642424E1,3.1552422E1,1.1385339E1,2.282416E1,1.4318697E1,1.6504495E2,1.1905256E1,1.6949577E0,7.094284E0,2.2932877E2,2.8857199E1,1.7391603E1,1.814249E1,1.5973837E2,3.610841E1,7.2368207E0,1.9261515E1,6.9018645E0,5.8498926E0,1.9771496E1,3.3714523E0,5.466334E1,1.6475956E0,5.467343E0,4.6144985E1,1.6535662E0,8.09593E1,1.8788185E1,4.8542376E0,1.4287865E1,1.7264557E1,8.616089E0,2.76925E0,1.3478159E1,9.346001E0,8.061659E0,6.2570376E0],"tree_param":{"num_deleted":"0","num_feature":"31","num_nodes":"63","size_leaf_vector":"1"}},{"base_weights":[-3.417683E-4,1.8210189E-1,-4.7780338E-1,3.604382E-2,4.5303574E-1,-3.7384978E-1,-8.284292E-1,1.1257572E-1,-2.2869214E-1,5.57246E-1,2.569919E-1,-4.572686E-1,2.5648397E-1,-9.6543974E-1,-3.231787E-1,7.946329E-2,7.090499E-1,-3.8815287E-1,1.891646E-1,3.5888E-1,7.330564E-1,3.6089575E-1,-5.567651E-1,-5.247076E-1,2.709921E-1,-6.157859E-1,5.990318E-1,-4.4647393E-1,-1.0571086E0,-6.937054E-1,4.3094113E-1,7.4099414E-3,-2.4874216E-2,-1.9458814E-2,4.6111725E-2,-2.0743613E-3,-3.533393E-2,2.6143242E-2,-2.9210722E-2,4.84764E-3,3.2521416E-2,-1.7416706E-2,3.9544184E-2,4.3930225E-2,1.154131E-2,-5.6912422E-2,2.6156588E-2,-3.991706E-2,-1.95152E-2,2.8157983E-2,-5.2904505E-2,2.2093056E-2,-5.0873887E-2,4.9400326E-2,-7.6970146E-3,-5.000744E-2,4.1779964E-3,3.0949549E-3,-5.492843E-2,1.967356E-2,-4.6430077E-2,5.1688533E-2,-2.556857E-2],"categories":[],"categories_nodes":[],"categories_segments":[],"categories_sizes":[],"default_left":[0,0,0,0,0,0,0,0,0,0,0,0,0,0,0,0,0,0,0,0,0,0,0,0,0,0,0,0,0,0,0,0,0,0,0,0,0,0,0,0,0,0,0,0,0,0,0,0,0,0,0,0,0,0,0,0,0,0,0,0,0,0,0],"id":13,"left_children":[1,3,5,7,9,11,13,15,17,19,21,23,25,27,29,31,33,35,37,39,41,43,45,47,49,51,53,55,57,59,61,-1,-1,-1,-1,-1,-1,-1,-1,-1,-1,-1,-1,-1,-1,-1,-1,-1,-1,-1,-1,-1,-1,-1,-1,-1,-1,-1,-1,-1,-1,-1,-1],"loss_changes":[8.974837E1,2.9482573E1,1.0072502E1,9.860899E0,5.1893387E0,1.1765581E1,4.140236E0,7.394375E0,7.3490095E0,5.650635E0,8.017683E0,9.768192E0,8.296295E0,1.9110756E0,4.5526867E0,1.4291636E1,4.974498E0,8.733664E0,8.262476E0,6.170809E0,5.8370476E0,5.358488E0,7.4154873E0,6.2982216E0,7.3024435E0,3.8374429E0,5.880117E0,2.7984514E0,2.0091858E0,3.070054E0,3.7281039E0,0E0,0E0,0E0,0E0,0E0,0E0,0E0,0E0,0E0,0E0,0E0,0E0,0E0,0E0,0E0,0E0,0E0,0E0,0E0,0E0,0E0,0E0,0E0,0E0,0E0,0E0,0E0,0E0,0E0,0E0,0E0,0E0],"parents":[2147483647,0,0,1,1,2,2,3,3,4,4,5,5,6,6,7,7,8,8,9,9,10,10,11,11,12,12,13,13,14,14,15,15,16,16,17,17,18,18,19,19,20,20,21,21,22,22,23,23,24,24,25,25,26,26,27,27,28,28,29,29,30,30],"right_children":[2,4,6,8,10,12,14,16,18,20,22,24,26,28,30,32,34,36,38,40,42,44,46,48,50,52,54,56,58,60,62,-1,-1,-1,-1,-1,-1,-1,-1,-1,-1,-1,-1,-1,-1,-1,-1,-1,-1,-1,-1,-1,-1,-1,-1,-1,-1,-1,-1,-1,-1,-1,-1],"split_conditions":[5.35E0,1.5663322E1,1.115E1,3.8E0,1.10799186E-1,2.4863691E1,4.06E1,2.614985E4,3.165E1,1.7979481E0,4.5E0,8.3E0,1.5904137E0,2.45E0,1.4324178E-1,2.590575E4,3.7902375E-3,-7.0973067E-3,2.5464137E4,4.525847E-2,1.5872668E1,1.663529E1,4.0195286E-1,1.670251E0,2.4636097E0,2.3060688E4,2.487364E4,6.6466564E-5,-1.3735E2,6.05E0,1.475E1,7.4099414E-3,-2.4874216E-2,-1.9458814E-2,4.6111725E-2,-2.0743613E-3,-3.533393E-2,2.6143242E-2,-2.9210722E-2,4.84764E-3,3.2521416E-2,-1.7416706E-2,3.9544184E-2,4.3930225E-2,1.154131E-2,-5.6912422E-2,2.6156588E-2,-3.991706E-2,-1.95152E-2,2.8157983E-2,-5.2904505E-2,2.2093056E-2,-5.0873887E-2,4.9400326E-2,-7.6970146E-3,-5.000744E-2,4.1779964E-3,3.0949549E-3,-5.492843E-2,1.967356E-2,-4.6430077E-2,5.1688533E-2,-2.556857E-2],"split_indices":[28,20,28,28,18,20,5,3,6,16,8,9,16,8,14,4,14,18,17,14,20,20,18,16,16,17,17,15,5,7,28,0,0,0,0,0,0,0,0,0,0,0,0,0,0,0,0,0,0,0,0,0,0,0,0,0,0,0,0,0,0,0,0],"split_type":[0,0,0,0,0,0,0,0,0,0,0,0,0,0,0,0,0,0,0,0,0,0,0,0,0,0,0,0,0,0,0,0,0,0,0,0,0,0,0,0,0,0,0,0,0,0,0,0,0,0,0,0,0,0,0,0,0,0,0,0,0,0,0],"sum_hessian":[1.0282908E3,7.444473E2,2.838434E2,4.84429E2,2.6001837E2,2.2052759E2,6.3315823E1,3.7623798E2,1.08190994E2,1.6856989E2,9.144849E1,1.9499622E2,2.5531376E1,4.909244E1,1.4223382E1,3.5752377E2,1.871421E1,7.835904E1,2.9831957E1,8.063317E1,8.793672E1,8.1587555E1,9.860929E0,1.7872525E2,1.6270966E1,6.97428E0,1.8557096E1,8.251073E0,4.084137E1,9.591058E0,4.6323247E0,3.2012796E2,3.7395805E1,2.908005E0,1.5806206E1,3.806331E1,4.0295727E1,2.1066175E1,8.765783E0,4.3176193E1,3.7456978E1,4.208708E0,8.372801E1,1.5226694E1,6.636086E1,6.37448E0,3.4864492E0,5.7243294E1,1.2148196E2,1.3811181E1,2.459785E0,1.8921871E0,5.082093E0,1.203028E1,6.5268154E0,3.6017363E0,4.649337E0,1.4415224E0,3.9399845E1,1.5841242E0,8.006933E0,2.7658556E0,1.8664694E0],"tree_param":{"num_deleted":"0","num_feature":"31","num_nodes":"63","size_leaf_vector":"1"}},{"base_weights":[-4.5723538E-4,1.7348681E-1,-4.579151E-1,2.7505783E-2,4.2175865E-1,-2.5865117E-1,-6.3138056E-1,9.54633E-2,-2.5320774E-1,4.6446458E-1,-3.7939284E-2,-3.580513E-1,5.954303E-1,-7.841145E-1,-2.2537433E-1,5.935647E-2,7.441063E-1,-8.541641E-1,-1.0512477E-1,4.1876003E-1,9.6207905E-1,1.8627094E-1,-8.6211437E-1,-4.8287937E-1,3.6707038E-1,8.9465415E-1,-4.3252643E-2,-8.687481E-1,-2.0599148E-1,-7.832326E-1,-2.8655812E-2,5.8899536E-3,-2.31308E-2,-1.8718598E-2,4.7902677E-2,4.9862724E-2,-5.2048113E-2,-3.0050395E-2,1.7720001E-3,1.710452E-2,3.6186844E-2,7.051387E-3,6.061049E-2,-2.1719864E-2,2.6720082E-2,-4.177689E-3,-5.6198854E-2,-2.8709218E-2,2.3898434E-2,3.885592E-2,-2.3753105E-2,-8.614174E-3,6.1792064E-2,-4.8007216E-2,-1.790207E-2,6.9505894E-3,-5.8113005E-2,1.7488582E-2,-4.765106E-2,1.3223159E-2,-2.7627727E-2],"categories":[],"categories_nodes":[],"categories_segments":[],"categories_sizes":[],"default_left":[0,0,0,0,0,0,0,0,0,0,0,0,0,0,0,0,0,0,0,0,0,0,0,0,0,0,0,0,0,0,0,0,0,0,0,0,0,0,0,0,0,0,0,0,0,0,0,0,0,0,0,0,0,0,0,0,0,0,0,0,0],"id":14,"left_children":[1,3,5,7,9,11,13,15,17,19,21,23,25,27,29,31,33,35,37,39,41,43,45,47,49,51,-1,53,55,57,59,-1,-1,-1,-1,-1,-1,-1,-1,-1,-1,-1,-1,-1,-1,-1,-1,-1,-1,-1,-1,-1,-1,-1,-1,-1,-1,-1,-1,-1,-1],"loss_changes":[8.168803E1,2.6945177E1,9.612289E0,8.979639E0,5.4228783E0,1.1530952E1,9.155952E0,8.824608E0,8.077059E0,5.32848E0,4.656217E0,1.104274E1,7.011565E0,5.1521835E0,4.646305E0,1.103022E1,5.1160803E0,7.26414E0,5.2329535E0,5.19059E0,4.0243435E0,4.5423565E0,1.0030689E0,9.296818E0,6.6531615E0,4.7042294E0,0E0,4.0780334E0,5.1844006E0,2.4596348E0,5.1354833E0,0E0,0E0,0E0,0E0,0E0,0E0,0E0,0E0,0E0,0E0,0E0,0E0,0E0,0E0,0E0,0E0,0E0,0E0,0E0,0E0,0E0,0E0,0E0,0E0,0E0,0E0,0E0,0E0,0E0,0E0],"parents":[2147483647,0,0,1,1,2,2,3,3,4,4,5,5,6,6,7,7,8,8,9,9,10,10,11,11,12,12,13,13,14,14,15,15,16,16,17,17,18,18,19,19,20,20,21,21,22,22,23,23,24,24,25,25,27,27,28,28,29,29,30,30],"right_children":[2,4,6,8,10,12,14,16,18,20,22,24,26,28,30,32,34,36,38,40,42,44,46,48,50,52,-1,54,56,58,60,-1,-1,-1,-1,-1,-1,-1,-1,-1,-1,-1,-1,-1,-1,-1,-1,-1,-1,-1,-1,-1,-1,-1,-1,-1,-1,-1,-1,-1,-1],"split_conditions":[5.35E0,1.5286323E1,7.7E0,4E0,2.578165E4,3.575766E-1,5.2E0,2.614985E4,1.66E1,2.520925E0,2.1770794E1,2.1628508E1,2.55473E4,4.15E1,1.598898E0,2.59149E4,3.7902375E-3,2.32842E4,4.25E0,3.87E1,2.45E0,4.4E0,1.45E0,2.595575E4,6.311643E-2,1.8663704E0,-4.3252643E-2,2.456333E1,1.505E1,3.4E0,1.355E1,5.8899536E-3,-2.31308E-2,-1.8718598E-2,4.7902677E-2,4.9862724E-2,-5.2048113E-2,-3.0050395E-2,1.7720001E-3,1.710452E-2,3.6186844E-2,7.051387E-3,6.061049E-2,-2.1719864E-2,2.6720082E-2,-4.177689E-3,-5.6198854E-2,-2.8709218E-2,2.3898434E-2,3.885592E-2,-2.3753105E-2,-8.614174E-3,6.1792064E-2,-4.8007216E-2,-1.790207E-2,6.9505894E-3,-5.8113005E-2,1.7488582E-2,-4.765106E-2,1.3223159E-2,-2.7627727E-2],"split_indices":[28,20,28,28,4,18,9,3,6,16,20,20,3,5,16,4,14,3,28,5,9,7,9,3,18,16,0,20,28,8,28,0,0,0,0,0,0,0,0,0,0,0,0,0,0,0,0,0,0,0,0,0,0,0,0,0,0,0,0,0,0],"split_type":[0,0,0,0,0,0,0,0,0,0,0,0,0,0,0,0,0,0,0,0,0,0,0,0,0,0,0,0,0,0,0,0,0,0,0,0,0,0,0,0,0,0,0,0,0,0,0,0,0,0,0,0,0,0,0,0,0,0,0,0,0],"sum_hessian":[1.0245934E3,7.4277924E2,2.818141E2,4.6844794E2,2.7433133E2,1.3231348E2,1.495006E2,3.7767667E2,9.0771255E1,2.5100279E2,2.3328524E1,1.1904007E2,1.3273406E1,1.07957275E2,4.1543327E1,3.5879575E2,1.8880922E1,1.7002571E1,7.3768684E1,2.3157481E2,1.9427982E1,1.8947891E1,4.380631E0,1.0184223E2,1.7197838E1,1.1337918E1,1.9354874E0,9.373268E1,1.4224591E1,1.0053087E1,3.1490238E1,3.233646E2,3.5431168E1,2.9113052E0,1.5969617E1,1.1606184E0,1.5841953E1,1.5568965E1,5.819972E1,1.8674878E2,4.482603E1,4.9017763E0,1.4526207E1,6.71974E0,1.2228152E1,1.4345508E0,2.94608E0,9.337194E1,8.470291E0,1.1618031E1,5.5798073E0,2.8671145E0,8.470804E0,7.875808E1,1.4974601E1,1.1081303E1,3.143289E0,1.1720326E0,8.881055E0,2.051012E1,1.0980119E1],"tree_param":{"num_deleted":"0","num_feature":"31","num_nodes":"61","size_leaf_vector":"1"}},{"base_weights":[-5.5147207E-4,1.687991E-1,-4.3048194E-1,1.5707342E-2,3.7837425E-1,-3.3259863E-1,-7.7941227E-1,-1.5276466E-2,6.9458234E-1,4.317516E-1,4.8680753E-2,-6.111296E-1,-1.432906E-1,-1.0226269E0,-4.8159835E-1,1.4744443E-1,-1.2845425E-1,1.746391E-1,1.2223989E0,6.1577725E-1,3.2253796E-1,-9.907327E-2,7.172985E-1,-6.749654E-1,6.2992775E-1,7.7509016E-1,-1.9694267E-1,-1.0747161E0,6.029253E-4,-5.9501004E-1,4.1283068E-1,1.1019021E-2,-4.942226E-2,-1.0071583E-2,2.0803139E-2,5.763178E-2,-8.289269E-3,1.6594382E-2,6.8722576E-2,3.220823E-2,-4.6563502E-2,1.1303502E-2,4.0031273E-2,-9.445581E-3,4.7499187E-2,-1.5240117E-2,5.1580723E-2,-3.7156664E-2,2.9359204E-3,5.2126348E-2,-1.1946388E-2,-1.4644088E-2,7.242477E-2,-1.2071888E-2,4.8322737E-2,-5.587103E-3,-5.5875808E-2,-1.9953897E-2,-5.7422668E-2,-1.4749988E-2,5.1089175E-2],"categories":[],"categories_nodes":[],"categories_segments":[],"categories_sizes":[],"default_left":[0,0,0,0,0,0,0,0,0,0,0,0,0,0,0,0,0,0,0,0,0,0,0,0,0,0,0,0,0,0,0,0,0,0,0,0,0,0,0,0,0,0,0,0,0,0,0,0,0,0,0,0,0,0,0,0,0,0,0,0,0],"id":15,"left_children":[1,3,5,7,9,11,13,15,17,19,21,23,25,27,29,31,33,35,37,39,41,43,45,47,49,51,53,55,-1,57,59,-1,-1,-1,-1,-1,-1,-1,-1,-1,-1,-1,-1,-1,-1,-1,-1,-1,-1,-1,-1,-1,-1,-1,-1,-1,-1,-1,-1,-1,-1],"loss_changes":[7.447733E1,2.353912E1,9.613609E0,8.952551E0,5.4297676E0,1.1907223E1,4.0404053E0,7.5243354E0,4.8846684E0,5.1565285E0,4.4461107E0,7.6934547E0,6.8902493E0,1.8216057E0,3.2911167E0,1.4106692E1,9.656347E0,3.6951964E0,7.6951694E-1,4.9097023E0,7.627762E0,3.6806183E0,2.9284253E0,4.4317436E0,2.0434628E0,5.997926E0,6.9623346E0,1.1923981E0,0E0,2.4753418E0,2.012133E0,0E0,0E0,0E0,0E0,0E0,0E0,0E0,0E0,0E0,0E0,0E0,0E0,0E0,0E0,0E0,0E0,0E0,0E0,0E0,0E0,0E0,0E0,0E0,0E0,0E0,0E0,0E0,0E0,0E0,0E0],"parents":[2147483647,0,0,1,1,2,2,3,3,4,4,5,5,6,6,7,7,8,8,9,9,10,10,11,11,12,12,13,13,14,14,15,15,16,16,17,17,18,18,19,19,20,20,21,21,22,22,23,23,24,24,25,25,26,26,27,27,29,29,30,30],"right_children":[2,4,6,8,10,12,14,16,18,20,22,24,26,28,30,32,34,36,38,40,42,44,46,48,50,52,54,56,-1,58,60,-1,-1,-1,-1,-1,-1,-1,-1,-1,-1,-1,-1,-1,-1,-1,-1,-1,-1,-1,-1,-1,-1,-1,-1,-1,-1,-1,-1,-1,-1],"split_conditions":[5.25E0,1.4615516E1,1.115E1,5.31E1,4.3E0,1.5243632E1,3.3E0,-1.1421369E-2,7.06E2,-1.1320014E-1,8.3E0,7.45E0,1.5569211E1,6.7860395E-1,1.051E2,1.4170253E1,3.125338E-1,1.5E0,1.9776113E-2,4.6957136E-4,1.8627445E-1,3.269E3,4.4E2,3.515098E-1,3.75E0,1.6170671E0,3.265E1,2.255455E4,6.029253E-4,3.407812E1,1.7760129E0,1.1019021E-2,-4.942226E-2,-1.0071583E-2,2.0803139E-2,5.763178E-2,-8.289269E-3,1.6594382E-2,6.8722576E-2,3.220823E-2,-4.6563502E-2,1.1303502E-2,4.0031273E-2,-9.445581E-3,4.7499187E-2,-1.5240117E-2,5.1580723E-2,-3.7156664E-2,2.9359204E-3,5.2126348E-2,-1.1946388E-2,-1.4644088E-2,7.242477E-2,-1.2071888E-2,4.8322737E-2,-5.587103E-3,-5.5875808E-2,-1.9953897E-2,-5.7422668E-2,-1.4749988E-2,5.1089175E-2],"split_indices":[28,20,28,6,28,20,9,18,0,18,9,9,20,18,5,20,18,9,14,15,14,0,0,18,7,16,7,3,0,20,16,0,0,0,0,0,0,0,0,0,0,0,0,0,0,0,0,0,0,0,0,0,0,0,0,0,0,0,0,0,0],"split_type":[0,0,0,0,0,0,0,0,0,0,0,0,0,0,0,0,0,0,0,0,0,0,0,0,0,0,0,0,0,0,0,0,0,0,0,0,0,0,0,0,0,0,0,0,0,0,0,0,0,0,0,0,0,0,0,0,0,0,0,0,0],"sum_hessian":[1.02091614E3,7.328516E2,2.880645E2,4.2411578E2,3.087358E2,2.2648364E2,6.158089E1,4.0653888E2,1.757691E1,2.6544992E2,4.32859E1,9.07435E1,1.3574013E2,3.255805E1,2.9022842E1,1.6664417E2,2.3989471E2,9.524931E0,8.051979E0,9.713635E1,1.6831357E2,3.6149296E1,7.136603E0,8.673812E1,4.00538E0,6.7500825E0,1.2899005E2,3.0960703E1,1.5973471E0,2.6054008E1,2.9688325E0,1.5734683E2,9.29733E0,2.1209882E2,2.779589E1,1.843348E0,7.6815825E0,1.6385238E0,6.413455E0,9.595918E1,1.1771736E0,1.4127927E2,2.7034298E1,3.4053013E1,2.0962834E0,1.6855984E0,5.4510045E0,7.935246E1,7.385659E0,2.5802124E0,1.4251679E0,2.8288326E0,3.9212499E0,1.2500173E2,3.9883215E0,1.471168E0,2.9489534E1,2.0513E1,5.541009E0,1.6113752E0,1.3574572E0],"tree_param":{"num_deleted":"0","num_feature":"31","num_nodes":"61","size_leaf_vector":"1"}},{"base_weights":[-3.2772592E-4,1.474996E-1,-4.507673E-1,-1.2268504E-3,3.4820625E-1,-7.776317E-1,-3.448832E-1,-3.299816E-2,6.9110817E-1,4.1248995E-1,7.032973E-2,2.7176697E-2,-8.57735E-1,-2.0043968E-1,-6.414527E-1,4.4110186E-2,-2.9720506E-1,-3.2246035E-2,8.5571116E-1,3.6811098E-1,8.677722E-1,3.877776E-1,-1.6333137E-1,5.730895E-1,-3.9276976E-2,6.67594E-2,-9.308375E-1,-3.4151286E-1,2.6881632E-1,-3.196573E-1,-9.2433596E-1,6.599399E-3,-9.9082915E-3,-1.8299507E-2,4.5146685E-2,5.1177602E-2,-1.24951415E-2,2.8076524E-2,1.2010129E-2,4.904094E-2,-5.602657E-3,-1.692268E-2,3.235098E-2,1.3911086E-2,-2.0762123E-2,-2.5984019E-2,6.1219223E-2,-4.5415953E-2,3.848829E-2,1.3603075E-2,-4.973675E-2,-2.8531818E-4,-2.7342414E-2,3.181177E-2,-1.6472634E-2,-2.4626955E-2,2.5239108E-2,-5.4101277E-2,-5.203103E-3],"categories":[],"categories_nodes":[],"categories_segments":[],"categories_sizes":[],"default_left":[0,0,0,0,0,0,0,0,0,0,0,0,0,0,0,0,0,0,0,0,0,0,0,0,0,0,0,0,0,0,0,0,0,0,0,0,0,0,0,0,0,0,0,0,0,0,0,0,0,0,0,0,0,0,0,0,0,0,0],"id":16,"left_children":[1,3,5,7,9,11,13,15,17,19,21,23,25,27,29,31,33,-1,35,37,39,41,43,45,-1,47,49,51,53,55,57,-1,-1,-1,-1,-1,-1,-1,-1,-1,-1,-1,-1,-1,-1,-1,-1,-1,-1,-1,-1,-1,-1,-1,-1,-1,-1,-1,-1],"loss_changes":[6.787693E1,2.2910336E1,8.449242E0,9.741393E0,5.806179E0,3.9450226E0,8.098206E0,8.63875E0,4.8251114E0,5.0366325E0,4.7050753E0,3.3233545E0,3.803276E0,8.737469E0,5.3889904E0,7.022579E0,8.237314E0,0E0,3.5458498E0,5.883835E0,2.6362305E0,5.269963E0,4.203266E0,3.8048358E0,0E0,4.1194324E0,4.218788E0,6.951023E0,6.9682455E0,4.630332E0,4.117546E0,0E0,0E0,0E0,0E0,0E0,0E0,0E0,0E0,0E0,0E0,0E0,0E0,0E0,0E0,0E0,0E0,0E0,0E0,0E0,0E0,0E0,0E0,0E0,0E0,0E0,0E0,0E0,0E0],"parents":[2147483647,0,0,1,1,2,2,3,3,4,4,5,5,6,6,7,7,8,8,9,9,10,10,11,11,12,12,13,13,14,14,15,15,16,16,18,18,19,19,20,20,21,21,22,22,23,23,25,25,26,26,27,27,28,28,29,29,30,30],"right_children":[2,4,6,8,10,12,14,16,18,20,22,24,26,28,30,32,34,-1,36,38,40,42,44,46,-1,48,50,52,54,56,58,-1,-1,-1,-1,-1,-1,-1,-1,-1,-1,-1,-1,-1,-1,-1,-1,-1,-1,-1,-1,-1,-1,-1,-1,-1,-1,-1,-1],"split_conditions":[5.7E0,1.4615516E1,1.5855997E0,5.31E1,4.3E0,-2.6353842E-1,2.498491E4,3.95E0,2.06E2,2.425E1,3.2E0,7.1E0,1.6332495E-5,2.4410807E1,7.9E0,1.4520557E-1,3.515098E-1,-3.2246035E-2,2.6627018E0,-1.0409198E-1,5.017035E-1,7E-1,2.405566E4,5.85E0,-3.9276976E-2,1.55E2,-2.27E1,-7.0973067E-3,1.355E1,2.59817E4,1.113E2,6.599399E-3,-9.9082915E-3,-1.8299507E-2,4.5146685E-2,5.1177602E-2,-1.24951415E-2,2.8076524E-2,1.2010129E-2,4.904094E-2,-5.602657E-3,-1.692268E-2,3.235098E-2,1.3911086E-2,-2.0762123E-2,-2.5984019E-2,6.1219223E-2,-4.5415953E-2,3.848829E-2,1.3603075E-2,-4.973675E-2,-2.8531818E-4,-2.7342414E-2,3.181177E-2,-1.6472634E-2,-2.4626955E-2,2.5239108E-2,-5.4101277E-2,-5.203103E-3],"split_indices":[28,20,16,6,28,18,17,28,0,7,7,7,15,20,28,18,18,0,16,18,18,7,17,5,0,0,5,18,28,3,6,0,0,0,0,0,0,0,0,0,0,0,0,0,0,0,0,0,0,0,0,0,0,0,0,0,0,0,0],"split_type":[0,0,0,0,0,0,0,0,0,0,0,0,0,0,0,0,0,0,0,0,0,0,0,0,0,0,0,0,0,0,0,0,0,0,0,0,0,0,0,0,0,0,0,0,0,0,0,0,0,0,0,0,0,0,0,0,0,0,0],"sum_hessian":[1.01736926E3,7.664912E2,2.5087805E2,4.4082648E2,3.2566473E2,5.98321E1,1.9104594E2,4.2239505E2,1.8431406E1,2.640867E2,6.157803E1,5.4758854E0,5.4356216E1,1.2960028E2,6.1445667E1,3.2761438E2,9.478067E1,1.7016478E0,1.6729757E1,2.4227893E2,2.1807785E1,2.582842E1,3.574961E1,3.4519856E0,2.0239E0,3.9895072E0,5.0366707E1,9.985341E1,2.9746866E1,2.9742224E1,3.1703444E1,2.4074657E2,8.686782E1,9.0300224E1,4.480448E0,1.4589222E1,2.1405365E0,9.5092545E1,1.4718637E2,1.955108E1,2.256705E0,6.714134E0,1.9114286E1,1.2948631E1,2.2800978E1,1.3645568E0,2.0874288E0,1.5489899E0,2.4405174E0,2.3761823E0,4.7990524E1,3.8279213E1,6.15742E1,1.8389645E1,1.1357222E1,2.4919315E1,4.8229084E0,2.6323843E1,5.3796015E0],"tree_param":{"num_deleted":"0","num_feature":"31","num_nodes":"59","size_leaf_vector":"1"}},{"base_weights":[-3.2805357E-4,1.4061102E-1,-4.3194652E-1,-1.095515E-3,3.324824E-1,-7.492113E-1,-3.2990143E-1,-3.1311978E-2,6.605193E-1,3.8451722E-1,7.290815E-3,2.510937E-2,-8.270842E-1,-6.266496E-1,-1.9149598E-1,4.1898068E-2,-2.8265843E-1,-3.1201577E-2,8.201282E-1,4.1504028E-1,-5.0739784E-2,-3.0258507E-1,5.332277E-1,5.517244E-1,-3.8221195E-2,6.1851874E-2,-8.983334E-1,-6.8716305E-1,5.181204E-1,1.7203835E-1,-4.021391E-1,6.2719258E-3,-9.416191E-3,-1.7431902E-2,4.3340113E-2,-3.096855E-4,5.229326E-2,1.8788107E-2,4.213718E-2,-2.069488E-2,6.005752E-2,-3.1369187E-2,1.4767689E-2,4.6000656E-2,-1.83881E-2,-2.5339162E-2,5.8883674E-2,-4.447085E-2,3.6871735E-2,1.3088718E-2,-4.8055988E-2,1.855945E-2,-3.5907008E-2,4.5031723E-2,-6.803449E-3,-9.637311E-3,2.3062503E-2,-1.4828089E-2,-5.8254004E-2],"categories":[],"categories_nodes":[],"categories_segments":[],"categories_sizes":[],"default_left":[0,0,0,0,0,0,0,0,0,0,0,0,0,0,0,0,0,0,0,0,0,0,0,0,0,0,0,0,0,0,0,0,0,0,0,0,0,0,0,0,0,0,0,0,0,0,0,0,0,0,0,0,0,0,0,0,0,0,0],"id":17,"left_children":[1,3,5,7,9,11,13,15,17,19,21,23,25,27,29,31,33,-1,35,37,39,41,43,45,-1,47,49,51,53,55,57,-1,-1,-1,-1,-1,-1,-1,-1,-1,-1,-1,-1,-1,-1,-1,-1,-1,-1,-1,-1,-1,-1,-1,-1,-1,-1,-1,-1],"loss_changes":[6.180057E1,2.0823349E1,7.8491364E0,8.847136E0,5.5023994E0,3.6430855E0,7.7248173E0,7.7987823E0,4.4746313E0,3.7468796E0,7.6414433E0,3.1076758E0,3.5145264E0,4.5340004E0,1.0153697E1,6.3434E0,7.551473E0,0E0,3.2939901E0,4.0877266E0,9.257446E0,5.9181495E0,6.394507E0,3.5492582E0,0E0,3.8615198E0,3.9390678E0,2.1586552E0,1.0229341E0,5.2598057E0,6.394808E0,0E0,0E0,0E0,0E0,0E0,0E0,0E0,0E0,0E0,0E0,0E0,0E0,0E0,0E0,0E0,0E0,0E0,0E0,0E0,0E0,0E0,0E0,0E0,0E0,0E0,0E0,0E0,0E0],"parents":[2147483647,0,0,1,1,2,2,3,3,4,4,5,5,6,6,7,7,8,8,9,9,10,10,11,11,12,12,13,13,14,14,15,15,16,16,18,18,19,19,20,20,21,21,22,22,23,23,25,25,26,26,27,27,28,28,29,29,30,30],"right_children":[2,4,6,8,10,12,14,16,18,20,22,24,26,28,30,32,34,-1,36,38,40,42,44,46,-1,48,50,52,54,56,58,-1,-1,-1,-1,-1,-1,-1,-1,-1,-1,-1,-1,-1,-1,-1,-1,-1,-1,-1,-1,-1,-1,-1,-1,-1,-1,-1,-1],"split_conditions":[5.7E0,1.4615516E1,1.5855997E0,5.31E1,2.567065E4,-2.6353842E-1,1.5243632E1,3.95E0,2.06E2,4.95E0,8.9E0,7.1E0,1.6332495E-5,7.45E0,7.7E0,1.4520557E-1,3.515098E-1,-3.1201577E-2,1.1113093E1,2.425E1,7.15E0,2.5965314E4,2.611055E4,5.85E0,-3.8221195E-2,1.55E2,-2.27E1,1.5E-1,1.9859202E0,5.8E0,2.558435E4,6.2719258E-3,-9.416191E-3,-1.7431902E-2,4.3340113E-2,-3.096855E-4,5.229326E-2,1.8788107E-2,4.213718E-2,-2.069488E-2,6.005752E-2,-3.1369187E-2,1.4767689E-2,4.6000656E-2,-1.83881E-2,-2.5339162E-2,5.8883674E-2,-4.447085E-2,3.6871735E-2,1.3088718E-2,-4.8055988E-2,1.855945E-2,-3.5907008E-2,4.5031723E-2,-6.803449E-3,-9.637311E-3,2.3062503E-2,-1.4828089E-2,-5.8254004E-2],"split_indices":[28,20,16,6,3,18,20,28,0,8,7,7,15,9,28,18,18,0,20,7,9,17,3,5,0,0,5,7,16,8,4,0,0,0,0,0,0,0,0,0,0,0,0,0,0,0,0,0,0,0,0,0,0,0,0,0,0,0,0],"split_type":[0,0,0,0,0,0,0,0,0,0,0,0,0,0,0,0,0,0,0,0,0,0,0,0,0,0,0,0,0,0,0,0,0,0,0,0,0,0,0,0,0,0,0,0,0,0,0,0,0,0,0,0,0,0,0,0,0,0,0],"sum_hessian":[1.0139252E3,7.648486E2,2.4907657E2,4.4050674E2,3.2434183E2,5.9072952E1,1.9000363E2,4.2217822E2,1.8328533E1,2.7944467E2,4.489716E1,5.4599648E0,5.3612988E1,5.931076E1,1.3069287E2,3.2759302E2,9.458519E1,1.7040871E0,1.6624447E1,2.6117575E2,1.8268906E1,2.8518856E1,1.6378305E1,3.4560184E0,2.0039463E0,3.9880629E0,4.9624924E1,5.6712624E1,2.5981367E0,4.80133E1,8.267956E1,2.4070406E2,8.688896E1,9.010955E1,4.4756384E0,3.7757354E0,1.2848712E1,2.4092862E2,2.0247133E1,1.4679847E1,3.5890594E0,1.8448462E1,1.0070395E1,1.1444281E1,4.934024E0,1.3550111E0,2.1010075E0,1.5246826E0,2.46338E0,2.385147E0,4.7239777E1,1.3004146E0,5.541221E1,1.4017783E0,1.1963583E0,2.1380053E1,2.6633251E1,7.384891E1,8.830652E0],"tree_param":{"num_deleted":"0","num_feature":"31","num_nodes":"59","size_leaf_vector":"1"}},{"base_weights":[-2.6361705E-4,1.341015E-1,-4.1389352E-1,-9.393126E-4,3.1755543E-1,-3.4014633E-1,-8.379303E-1,4.900303E-1,-3.8086705E-2,3.778575E-1,5.8898993E-2,-4.7507092E-1,2.3503188E-2,-9.1231173E-1,2.0839766E-1,-1.7295685E-1,8.4733105E-1,-3.36172E-1,1.927548E-2,4.1862255E-1,-5.1329717E-2,3.609603E-1,-1.6279957E-1,9.876859E-1,-5.039191E-1,9.1114396E-1,-1.3832049E-1,-9.9812585E-1,-1.4216109E-1,3.6470093E-2,-2.1684114E-2,-4.555089E-2,3.2618076E-2,6.08821E-2,-6.787732E-3,-4.6349643E-3,-4.1177925E-2,2.487896E-2,-1.5712243E-3,1.8006256E-2,3.67969E-2,1.0515626E-2,-3.876782E-2,-1.6554937E-2,3.0450458E-2,1.4515187E-2,-1.9429354E-2,6.0294952E-2,1.6001036E-2,-3.1593274E-2,-7.6764086E-3,-1.0776073E-2,5.6795932E-2,4.618639E-3,-3.7533812E-2,-7.733986E-3,-5.3044345E-2,2.591807E-2,-4.4513647E-2],"categories":[],"categories_nodes":[],"categories_segments":[],"categories_sizes":[],"default_left":[0,0,0,0,0,0,0,0,0,0,0,0,0,0,0,0,0,0,0,0,0,0,0,0,0,0,0,0,0,0,0,0,0,0,0,0,0,0,0,0,0,0,0,0,0,0,0,0,0,0,0,0,0,0,0,0,0,0,0],"id":18,"left_children":[1,3,5,7,9,11,13,15,17,19,21,23,25,27,29,31,33,35,37,39,41,43,45,47,49,51,53,55,57,-1,-1,-1,-1,-1,-1,-1,-1,-1,-1,-1,-1,-1,-1,-1,-1,-1,-1,-1,-1,-1,-1,-1,-1,-1,-1,-1,-1,-1,-1],"loss_changes":[5.6267456E1,1.8931885E1,7.4777603E0,8.064762E0,5.031536E0,1.0469166E1,2.9991817E0,7.5145197E0,7.035172E0,4.6153717E0,4.240306E0,7.0599365E0,8.548333E0,2.0974789E0,1.3900129E0,7.735077E0,7.5848293E0,7.8020406E0,8.398157E0,4.1880913E0,4.6464276E0,4.7922163E0,3.8674731E0,1.01499796E-1,6.7695694E0,2.5678387E0,7.197822E0,1.4409485E0,2.716305E0,0E0,0E0,0E0,0E0,0E0,0E0,0E0,0E0,0E0,0E0,0E0,0E0,0E0,0E0,0E0,0E0,0E0,0E0,0E0,0E0,0E0,0E0,0E0,0E0,0E0,0E0,0E0,0E0,0E0,0E0],"parents":[2147483647,0,0,1,1,2,2,3,3,4,4,5,5,6,6,7,7,8,8,9,9,10,10,11,11,12,12,13,13,14,14,15,15,16,16,17,17,18,18,19,19,20,20,21,21,22,22,23,23,24,24,25,25,26,26,27,27,28,28],"right_children":[2,4,6,8,10,12,14,16,18,20,22,24,26,28,30,32,34,36,38,40,42,44,46,48,50,52,54,56,58,-1,-1,-1,-1,-1,-1,-1,-1,-1,-1,-1,-1,-1,-1,-1,-1,-1,-1,-1,-1,-1,-1,-1,-1,-1,-1,-1,-1,-1,-1],"split_conditions":[5.7E0,1.4615516E1,1.355E1,-1.41E1,4.3E0,2.1110613E1,1.276E2,2.48688E4,9.629463E0,2.582235E4,3.2E0,-4.004475E-1,-1.015E1,1E0,4.021E3,3.0757907E-1,2.597335E4,5.44E2,1.255E1,1.8627445E-1,1.8488789E1,7E-1,3.9409786E-2,3.65E0,1.3875E4,1.189E3,1.5491042E-1,-8.350395E-2,1.815E1,3.6470093E-2,-2.1684114E-2,-4.555089E-2,3.2618076E-2,6.08821E-2,-6.787732E-3,-4.6349643E-3,-4.1177925E-2,2.487896E-2,-1.5712243E-3,1.8006256E-2,3.67969E-2,1.0515626E-2,-3.876782E-2,-1.6554937E-2,3.0450458E-2,1.4515187E-2,-1.9429354E-2,6.0294952E-2,1.6001036E-2,-3.1593274E-2,-7.6764086E-3,-1.0776073E-2,5.6795932E-2,4.618639E-3,-3.7533812E-2,-7.733986E-3,-5.3044345E-2,2.591807E-2,-4.4513647E-2],"split_indices":[28,20,28,5,28,20,5,3,20,4,7,18,5,1,0,18,3,0,6,14,20,7,14,7,27,0,18,14,28,0,0,0,0,0,0,0,0,0,0,0,0,0,0,0,0,0,0,0,0,0,0,0,0,0,0,0,0,0,0],"split_type":[0,0,0,0,0,0,0,0,0,0,0,0,0,0,0,0,0,0,0,0,0,0,0,0,0,0,0,0,0,0,0,0,0,0,0,0,0,0,0,0,0,0,0,0,0,0,0,0,0,0,0,0,0,0,0,0,0,0,0],"sum_hessian":[1.01041693E3,7.631788E2,2.4723811E2,4.4016632E2,3.2301245E2,2.1214473E2,3.5093395E1,3.0103458E1,4.1006287E2,2.6157022E2,6.1442234E1,1.5451045E2,5.7634277E1,3.2883827E1,2.2095656E0,1.072279E1,1.9380669E1,6.539163E1,3.4467123E2,2.3890334E2,2.2666895E1,2.5741554E1,3.570068E1,2.3454697E0,1.5216498E2,8.172998E0,4.946128E1,2.9320747E1,3.5630803E0,1.1447116E0,1.0648539E0,5.6058154E0,5.1169744E0,1.39045E1,5.476169E0,4.440128E1,2.0990355E1,3.21887E1,3.124825E2,2.0351924E2,3.538409E1,1.7171232E1,5.4956617E0,6.703606E0,1.9037949E1,1.1778405E1,2.3922276E1,1.1601534E0,1.1853163E0,1.1087523E2,4.1289745E1,1.3661988E0,6.8067994E0,3.6543404E1,1.2917875E1,2.2706075E0,2.705014E1,2.0554185E0,1.5076618E0],"tree_param":{"num_deleted":"0","num_feature":"31","num_nodes":"59","size_leaf_vector":"1"}},{"base_weights":[-2.2730228E-4,1.917651E-1,-2.663022E-1,8.0702275E-2,4.212445E-1,-1.3005856E-1,-5.3007E-1,5.0286453E-2,6.5175873E-1,3.360194E-1,7.70249E-1,-4.3339115E-1,2.757063E-2,-6.78697E-1,-1.4706334E-1,1.0956244E-1,-4.5886293E-1,-3.657677E-1,8.4696823E-1,5.600456E-1,1.4720243E-1,-3.0443248E-1,9.1577786E-1,-2.095752E-1,-9.204259E-1,-1.5717256E-1,2.7894142E-1,-7.942871E-1,-2.7185252E-1,-6.756377E-1,3.2481547E-2,-2.9678668E-3,1.1250136E-2,-3.9337993E-2,-6.2585226E-3,-3.3116557E-2,8.262727E-3,3.230214E-3,5.0615873E-2,5.96233E-3,4.108259E-2,2.7420143E-2,-3.6057269E-3,2.2191739E-2,-5.37568E-2,1.677693E-2,5.629021E-2,-3.421646E-2,6.2606395E-3,-5.0265975E-2,7.3440643E-3,3.648644E-3,-2.2812402E-2,6.166568E-2,7.922951E-3,1.35467565E-2,-4.1644245E-2,-1.5202777E-3,-5.64408E-2,2.0042645E-2,-4.248844E-2,1.4615915E-2,-2.2636654E-2],"categories":[],"categories_nodes":[],"categories_segments":[],"categories_sizes":[],"default_left":[0,0,0,0,0,0,0,0,0,0,0,0,0,0,0,0,0,0,0,0,0,0,0,0,0,0,0,0,0,0,0,0,0,0,0,0,0,0,0,0,0,0,0,0,0,0,0,0,0,0,0,0,0,0,0,0,0,0,0,0,0,0,0],"id":19,"left_children":[1,3,5,7,9,11,13,15,17,19,21,23,25,27,29,31,33,35,37,39,41,43,45,47,49,51,53,55,57,59,61,-1,-1,-1,-1,-1,-1,-1,-1,-1,-1,-1,-1,-1,-1,-1,-1,-1,-1,-1,-1,-1,-1,-1,-1,-1,-1,-1,-1,-1,-1,-1,-1],"loss_changes":[5.1546375E1,1.4904184E1,1.5129625E1,6.8489113E0,5.4198036E0,1.3409594E1,8.081654E0,1.1435794E1,4.272853E0,6.4833546E0,6.0180893E0,1.02583065E1,8.65019E0,4.6404076E0,3.9563174E0,6.618385E0,4.227064E0,7.2520304E-1,2.1391973E0,8.047289E0,7.5702186E0,3.4339876E0,3.5913773E0,1.0732329E1,2.8561726E0,7.429796E0,8.873053E0,3.510685E0,5.007763E0,2.3196082E0,4.1541243E0,0E0,0E0,0E0,0E0,0E0,0E0,0E0,0E0,0E0,0E0,0E0,0E0,0E0,0E0,0E0,0E0,0E0,0E0,0E0,0E0,0E0,0E0,0E0,0E0,0E0,0E0,0E0,0E0,0E0,0E0,0E0,0E0],"parents":[2147483647,0,0,1,1,2,2,3,3,4,4,5,5,6,6,7,7,8,8,9,9,10,10,11,11,12,12,13,13,14,14,15,15,16,16,17,17,18,18,19,19,20,20,21,21,22,22,23,23,24,24,25,25,26,26,27,27,28,28,29,29,30,30],"right_children":[2,4,6,8,10,12,14,16,18,20,22,24,26,28,30,32,34,36,38,40,42,44,46,48,50,52,54,56,58,60,62,-1,-1,-1,-1,-1,-1,-1,-1,-1,-1,-1,-1,-1,-1,-1,-1,-1,-1,-1,-1,-1,-1,-1,-1,-1,-1,-1,-1,-1,-1,-1,-1],"split_conditions":[3.95E0,1.5817637E1,7.7E0,2.614985E4,3.87E1,2.375E1,5.2E0,2.590575E4,3.7902375E-3,6.45E0,1.5E1,2.14E1,1.9200238E0,2.4410807E1,1.598898E0,1.1509625E1,3.9E0,-8.149762E-2,7E-1,8.3E0,1.7822416E1,2.493945E4,1.6867867E0,1.1867218E1,1.503E3,6.425E3,1.9635181E0,-4.004475E-1,1.59E1,3.4E0,1.355E1,-2.9678668E-3,1.1250136E-2,-3.9337993E-2,-6.2585226E-3,-3.3116557E-2,8.262727E-3,3.230214E-3,5.0615873E-2,5.96233E-3,4.108259E-2,2.7420143E-2,-3.6057269E-3,2.2191739E-2,-5.37568E-2,1.677693E-2,5.629021E-2,-3.421646E-2,6.2606395E-3,-5.0265975E-2,7.3440643E-3,3.648644E-3,-2.2812402E-2,6.166568E-2,7.922951E-3,1.35467565E-2,-4.1644245E-2,-1.5202777E-3,-5.64408E-2,2.0042645E-2,-4.248844E-2,1.4615915E-2,-2.2636654E-2],"split_indices":[28,20,28,3,5,6,9,4,14,5,6,6,16,20,16,20,7,18,8,7,20,4,16,20,0,27,16,18,8,8,28,0,0,0,0,0,0,0,0,0,0,0,0,0,0,0,0,0,0,0,0,0,0,0,0,0,0,0,0,0,0,0,0],"split_type":[0,0,0,0,0,0,0,0,0,0,0,0,0,0,0,0,0,0,0,0,0,0,0,0,0,0,0,0,0,0,0,0,0,0,0,0,0,0,0,0,0,0,0,0,0,0,0,0,0,0,0,0,0,0,0,0,0,0,0,0,0,0,0],"sum_hessian":[1.0070446E3,5.851184E2,4.2192624E2,3.9520154E2,1.8991687E2,2.7920297E2,1.4272327E2,3.7624963E2,1.895189E1,1.5421996E2,3.5696926E1,9.487722E1,1.8432574E2,1.0226642E2,4.0456844E1,3.377169E2,3.8532734E1,2.9099743E0,1.6041918E1,6.963447E1,8.458548E1,4.12718E0,3.1569746E1,6.598448E1,2.889274E1,1.06459114E2,7.786664E1,7.889807E1,2.3368347E1,9.557326E0,3.0899517E1,1.3729852E2,2.0041838E2,1.8750322E1,1.978241E1,1.7085266E0,1.2014476E0,3.041503E0,1.3000414E1,2.6477112E1,4.3157356E1,2.936573E1,5.5219753E1,2.3092616E0,1.8179185E0,9.080546E0,2.2489199E1,2.6856262E1,3.912822E1,2.6817736E1,2.075004E0,6.0589844E1,4.586927E1,7.69288E0,7.017376E1,2.548382E0,7.634969E1,1.9039503E1,4.3288445E0,1.149433E0,8.407893E0,2.038221E1,1.0517306E1],"tree_param":{"num_deleted":"0","num_feature":"31","num_nodes":"63","size_leaf_vector":"1"}},{"base_weights":[-2.6220345E-4,1.3170499E-1,-3.5697106E-1,2.3671938E-2,3.3791944E-1,-2.671007E-1,-6.7698216E-1,-2.7773812E-1,7.147789E-2,4.3539956E-1,1.5773974E-1,-5.71788E-1,-1.2785698E-1,-9.245704E-1,-3.856582E-1,-6.140028E-1,1.2234386E-2,-5.1811777E-2,2.3132057E-1,-4.4013378E-1,4.688532E-1,1.1089652E0,7.920483E-2,-7.148921E-1,-1.1017879E-1,7.6844186E-1,-1.712019E-1,-9.780245E-1,2.4741997E-3,-1.5351263E-1,-8.8359827E-1,-8.850573E-3,-7.054573E-2,2.6871962E-2,-2.5081102E-2,-4.5868922E-2,-6.897587E-4,2.2364382E-2,5.0395154E-3,4.260688E-2,-4.2867213E-2,1.493327E-2,3.4739826E-2,6.754124E-2,-2.18177E-3,-1.5865142E-2,1.474303E-2,-2.0236617E-2,-4.572257E-2,1.2602485E-2,-4.0259432E-2,5.110349E-2,-1.3438118E-2,3.887437E-2,-1.0666364E-2,-2.300149E-3,-5.1137637E-2,-2.6967112E-2,2.4526317E-2,7.7545107E-3,-5.273182E-2],"categories":[],"categories_nodes":[],"categories_segments":[],"categories_sizes":[],"default_left":[0,0,0,0,0,0,0,0,0,0,0,0,0,0,0,0,0,0,0,0,0,0,0,0,0,0,0,0,0,0,0,0,0,0,0,0,0,0,0,0,0,0,0,0,0,0,0,0,0,0,0,0,0,0,0,0,0,0,0,0,0],"id":20,"left_children":[1,3,5,7,9,11,13,15,17,19,21,23,25,27,29,31,33,35,37,39,41,43,45,47,49,51,53,55,-1,57,59,-1,-1,-1,-1,-1,-1,-1,-1,-1,-1,-1,-1,-1,-1,-1,-1,-1,-1,-1,-1,-1,-1,-1,-1,-1,-1,-1,-1,-1,-1],"loss_changes":[4.73338E1,1.6343628E1,7.628578E0,6.9755516E0,4.3619194E0,8.991381E0,3.89081E0,6.471047E0,8.238432E0,4.9842854E0,6.64522E0,4.329109E0,5.878557E0,1.6685753E0,3.1899352E0,1.0445956E1,1.0140249E1,7.7690177E0,5.0843077E0,4.2454834E0,5.8529053E0,1.9536753E0,7.304758E0,2.7713318E0,4.4759517E0,2.1177154E0,5.8376117E0,1.1846695E0,0E0,5.441042E0,1.7513638E0,0E0,0E0,0E0,0E0,0E0,0E0,0E0,0E0,0E0,0E0,0E0,0E0,0E0,0E0,0E0,0E0,0E0,0E0,0E0,0E0,0E0,0E0,0E0,0E0,0E0,0E0,0E0,0E0,0E0,0E0],"parents":[2147483647,0,0,1,1,2,2,3,3,4,4,5,5,6,6,7,7,8,8,9,9,10,10,11,11,12,12,13,13,14,14,15,15,16,16,17,17,18,18,19,19,20,20,21,21,22,22,23,23,24,24,25,25,26,26,27,27,29,29,30,30],"right_children":[2,4,6,8,10,12,14,16,18,20,22,24,26,28,30,32,34,36,38,40,42,44,46,48,50,52,54,56,-1,58,60,-1,-1,-1,-1,-1,-1,-1,-1,-1,-1,-1,-1,-1,-1,-1,-1,-1,-1,-1,-1,-1,-1,-1,-1,-1,-1,-1,-1,-1,-1],"split_conditions":[5.35E0,1.5663322E1,1.115E1,9.629463E0,1.10799186E-1,1.4214142E1,3.3E0,5.361796E-2,5.15E2,1.5817637E1,1.5872668E1,1.255E4,-4.43E1,6.7860395E-1,2.48931E4,5.84E2,1.7878534E0,-2.5131744E-1,-7.0973067E-3,1.2E0,1.892356E0,1.5710585E-4,7.74E2,2.45E0,2.4220421E0,2.50538E4,2.06E2,2.255455E4,2.4741997E-3,1.9859202E0,2.5E0,-8.850573E-3,-7.054573E-2,2.6871962E-2,-2.5081102E-2,-4.5868922E-2,-6.897587E-4,2.2364382E-2,5.0395154E-3,4.260688E-2,-4.2867213E-2,1.493327E-2,3.4739826E-2,6.754124E-2,-2.18177E-3,-1.5865142E-2,1.474303E-2,-2.0236617E-2,-4.572257E-2,1.2602485E-2,-4.0259432E-2,5.110349E-2,-1.3438118E-2,3.887437E-2,-1.0666364E-2,-2.300149E-3,-5.1137637E-2,-2.6967112E-2,2.4526317E-2,7.7545107E-3,-5.273182E-2],"split_indices":[28,20,28,20,18,20,9,18,0,20,20,27,5,18,4,0,16,18,18,9,16,15,0,7,16,3,0,3,0,16,7,0,0,0,0,0,0,0,0,0,0,0,0,0,0,0,0,0,0,0,0,0,0,0,0,0,0,0,0,0,0],"split_type":[0,0,0,0,0,0,0,0,0,0,0,0,0,0,0,0,0,0,0,0,0,0,0,0,0,0,0,0,0,0,0,0,0,0,0,0,0,0,0,0,0,0,0,0,0,0,0,0,0,0,0,0,0,0,0,0,0,0,0,0,0],"sum_hessian":[1.0035232E3,7.3298175E2,2.7054147E2,4.817264E2,2.5125534E2,2.1265509E2,5.788637E1,6.528755E1,4.1643884E2,1.6212605E2,8.912928E1,6.572719E1,1.469279E2,3.0117039E1,2.7769333E1,2.9713285E1,3.557426E1,2.3548257E2,1.8095628E2,5.5193605E0,1.5660669E2,5.7968154E0,8.3332466E1,4.9754143E1,1.5973043E1,6.0059795E0,1.4092192E2,2.8546394E1,1.5706434E0,1.9831806E1,7.9375277E0,1.9979519E1,9.733767E0,1.7570168E1,1.8004095E1,8.934302E0,2.2654826E2,6.725453E1,1.1370175E2,1.0926166E0,4.426744E0,9.064888E1,6.595782E1,4.6492457E0,1.1475697E0,2.91907E1,5.414176E1,2.0664705E1,2.9089437E1,1.0919375E1,5.0536675E0,4.8376245E0,1.1683547E0,5.2492437E0,1.3567268E2,1.4001145E0,2.714628E1,1.2503686E1,7.3281207E0,1.1354365E0,6.802091E0],"tree_param":{"num_deleted":"0","num_feature":"31","num_nodes":"61","size_leaf_vector":"1"}},{"base_weights":[-3.797437E-4,1.769624E-1,-2.4726546E-1,7.5484574E-2,3.8870856E-1,-1.2167888E-1,-4.9414045E-1,4.6749763E-2,6.173099E-1,3.0748433E-1,7.258353E-1,-3.5020205E-1,7.022798E-2,-6.3829654E-1,-1.2819366E-1,1.0306683E-1,-4.3704692E-1,-3.5942355E-1,8.0656177E-1,5.262424E-1,1.24105744E-1,-3.1715938E-1,8.702206E-1,-7.201726E-1,-1.6372861E-1,-1.8591922E-2,6.9403195E-1,-7.221161E-1,-9.592079E-2,-6.383693E-1,4.2742446E-2,-2.727198E-3,1.0544977E-2,2.3439316E-2,-2.7618993E-2,3.9642863E-3,-3.6267783E-2,2.5276823E-3,4.83916E-2,5.2313837E-3,3.897835E-2,2.1946464E-2,-7.0936703E-3,2.08412E-2,-5.2693333E-2,4.80501E-2,-1.4362869E-2,3.1383824E-2,-4.2666946E-2,1.9586567E-2,-1.6447447E-2,-1.0017232E-2,1.1358728E-2,-1.2539687E-2,4.977967E-2,-4.0584605E-2,-1.2203175E-2,1.7540034E-2,-3.92352E-2,2.0162068E-2,-4.0586207E-2,3.695771E-2,-6.5262015E-3],"categories":[],"categories_nodes":[],"categories_segments":[],"categories_sizes":[],"default_left":[0,0,0,0,0,0,0,0,0,0,0,0,0,0,0,0,0,0,0,0,0,0,0,0,0,0,0,0,0,0,0,0,0,0,0,0,0,0,0,0,0,0,0,0,0,0,0,0,0,0,0,0,0,0,0,0,0,0,0,0,0,0,0],"id":21,"left_children":[1,3,5,7,9,11,13,15,17,19,21,23,25,27,29,31,33,35,37,39,41,43,45,47,49,51,53,55,57,59,61,-1,-1,-1,-1,-1,-1,-1,-1,-1,-1,-1,-1,-1,-1,-1,-1,-1,-1,-1,-1,-1,-1,-1,-1,-1,-1,-1,-1,-1,-1,-1,-1],"loss_changes":[4.388182E1,1.2503836E1,1.2929867E1,6.129532E0,4.944729E0,1.2261595E1,7.3534393E0,1.0308877E1,3.9570818E0,6.105297E0,5.6833687E0,8.680501E0,8.462341E0,4.516056E0,3.609961E0,5.760089E0,4.382465E0,6.855023E-1,2.0148458E0,7.37722E0,7.1786613E0,3.196571E0,3.6183567E0,8.153799E0,8.029474E0,6.0519605E0,5.672724E0,3.5362854E0,4.7842264E0,2.200357E0,3.9226637E0,0E0,0E0,0E0,0E0,0E0,0E0,0E0,0E0,0E0,0E0,0E0,0E0,0E0,0E0,0E0,0E0,0E0,0E0,0E0,0E0,0E0,0E0,0E0,0E0,0E0,0E0,0E0,0E0,0E0,0E0,0E0,0E0],"parents":[2147483647,0,0,1,1,2,2,3,3,4,4,5,5,6,6,7,7,8,8,9,9,10,10,11,11,12,12,13,13,14,14,15,15,16,16,17,17,18,18,19,19,20,20,21,21,22,22,23,23,24,24,25,25,26,26,27,27,28,28,29,29,30,30],"right_children":[2,4,6,8,10,12,14,16,18,20,22,24,26,28,30,32,34,36,38,40,42,44,46,48,50,52,54,56,58,60,62,-1,-1,-1,-1,-1,-1,-1,-1,-1,-1,-1,-1,-1,-1,-1,-1,-1,-1,-1,-1,-1,-1,-1,-1,-1,-1,-1,-1,-1,-1,-1,-1],"split_conditions":[3.95E0,1.5817637E1,7.7E0,2.614985E4,3.87E1,2.76E1,5.2E0,2.590575E4,3.7902375E-3,6.45E0,1.5E1,4.5E0,8.3E0,4.15E1,1.598898E0,1.1509625E1,9.15169E0,2.621961E4,7E-1,8.3E0,6.8E0,2.493945E4,3.383E3,2.32934E4,9.35E0,1.9159154E0,1.85E0,2.456333E1,2.6415585E1,3.4E0,1.7105044E0,-2.727198E-3,1.0544977E-2,2.3439316E-2,-2.7618993E-2,3.9642863E-3,-3.6267783E-2,2.5276823E-3,4.83916E-2,5.2313837E-3,3.897835E-2,2.1946464E-2,-7.0936703E-3,2.08412E-2,-5.2693333E-2,4.80501E-2,-1.4362869E-2,3.1383824E-2,-4.2666946E-2,1.9586567E-2,-1.6447447E-2,-1.0017232E-2,1.1358728E-2,-1.2539687E-2,4.977967E-2,-4.0584605E-2,-1.2203175E-2,1.7540034E-2,-3.92352E-2,2.0162068E-2,-4.0586207E-2,3.695771E-2,-6.5262015E-3],"split_indices":[28,20,28,3,5,6,9,4,14,5,6,5,9,5,16,20,20,17,8,7,7,4,0,17,5,16,8,20,20,8,16,0,0,0,0,0,0,0,0,0,0,0,0,0,0,0,0,0,0,0,0,0,0,0,0,0,0,0,0,0,0,0,0],"split_type":[0,0,0,0,0,0,0,0,0,0,0,0,0,0,0,0,0,0,0,0,0,0,0,0,0,0,0,0,0,0,0,0,0,0,0,0,0,0,0,0,0,0,0,0,0,0,0,0,0,0,0,0,0,0,0,0,0,0,0,0,0,0,0],"sum_hessian":[1.0002521E3,5.822764E2,4.1797568E2,3.945484E2,1.87728E2,2.7803217E2,1.3994351E2,3.7570956E2,1.8838852E1,1.5282082E2,3.4907177E1,1.26532326E2,1.5149985E2,9.986128E1,4.0082222E1,3.3723962E2,3.8469913E1,2.9118E0,1.59270525E1,6.883531E1,8.398551E1,4.099199E0,3.0807978E1,4.144392E1,8.50884E1,1.334665E2,1.8033342E1,8.620728E1,1.3654002E1,9.373008E0,3.0709215E1,1.3719965E2,2.0003998E2,3.9987564E0,3.4471157E1,1.68046E0,1.23134E0,3.0311222E0,1.289593E1,2.6366268E1,4.2469048E1,3.8163467E1,4.582204E1,2.270901E0,1.828298E0,2.8724825E1,2.0831537E0,3.3925533E0,3.8051365E1,1.9192732E1,6.5895676E1,7.683167E1,5.6634834E1,4.4038706E0,1.3629472E1,7.2015366E1,1.4191913E1,8.58E0,5.0740023E0,1.1481558E0,8.224852E0,5.467528E0,2.5241688E1],"tree_param":{"num_deleted":"0","num_feature":"31","num_nodes":"63","size_leaf_vector":"1"}},{"base_weights":[-3.203891E-4,1.1265437E-1,-3.544779E-1,-5.393622E-2,2.1942553E-1,-6.53103E-1,-2.6074827E-1,-1.1313274E-1,4.8291895E-1,4.979854E-2,3.286747E-1,-7.1455055E-1,3.487593E-1,-1.2675317E-1,-5.410163E-1,-1.3881673E-1,8.566503E-1,6.4412814E-1,-9.301896E-1,-2.2916044E-1,1.7300352E-1,1.936694E-1,4.7796008E-1,3.119074E-1,-7.6645607E-1,-2.462439E-2,5.56593E-2,-9.422001E-1,-5.5173058E-2,-5.901543E-1,4.4226766E-2,-5.1389392E-3,-2.951681E-2,6.469821E-2,-1.795878E-2,-1.8337095E-2,4.0664185E-2,-1.3453838E-2,-5.8373835E-2,-4.2683893E-4,-3.4444958E-2,3.0515123E-2,3.0632417E-3,1.1230724E-2,-5.0501164E-2,2.6639877E-2,-1.8384943E-2,-2.0293381E-2,4.6514567E-2,2.6470834E-5,-4.2517535E-2,-5.7892352E-2,9.86598E-3,-9.955773E-3,2.0129113E-2,-1.4290824E-2,-4.3634832E-2],"categories":[],"categories_nodes":[],"categories_segments":[],"categories_sizes":[],"default_left":[0,0,0,0,0,0,0,0,0,0,0,0,0,0,0,0,0,0,0,0,0,0,0,0,0,0,0,0,0,0,0,0,0,0,0,0,0,0,0,0,0,0,0,0,0,0,0,0,0,0,0,0,0,0,0,0,0],"id":22,"left_children":[1,3,5,7,9,11,13,15,17,19,21,23,25,27,29,31,33,35,37,39,41,43,45,47,49,-1,-1,51,53,55,-1,-1,-1,-1,-1,-1,-1,-1,-1,-1,-1,-1,-1,-1,-1,-1,-1,-1,-1,-1,-1,-1,-1,-1,-1,-1,-1],"loss_changes":[3.9963043E1,1.3481069E1,6.590927E0,9.4797125E0,8.539221E0,3.7607803E0,6.898427E0,6.792475E0,7.352195E0,6.29617E0,5.5634727E0,3.1200047E0,3.100172E0,7.350278E0,4.7039394E0,4.2005453E0,4.214439E0,4.9491596E0,2.2623396E-1,5.694317E0,6.160433E0,5.7786484E0,6.344551E0,1.848299E0,3.3309555E0,0E0,0E0,2.7279444E0,7.83185E0,4.764616E0,0E0,0E0,0E0,0E0,0E0,0E0,0E0,0E0,0E0,0E0,0E0,0E0,0E0,0E0,0E0,0E0,0E0,0E0,0E0,0E0,0E0,0E0,0E0,0E0,0E0,0E0,0E0],"parents":[2147483647,0,0,1,1,2,2,3,3,4,4,5,5,6,6,7,7,8,8,9,9,10,10,11,11,12,12,13,13,14,14,15,15,16,16,17,17,18,18,19,19,20,20,21,21,22,22,23,23,24,24,27,27,28,28,29,29],"right_children":[2,4,6,8,10,12,14,16,18,20,22,24,26,28,30,32,34,36,38,40,42,44,46,48,50,-1,-1,52,54,56,-1,-1,-1,-1,-1,-1,-1,-1,-1,-1,-1,-1,-1,-1,-1,-1,-1,-1,-1,-1,-1,-1,-1,-1,-1,-1,-1],"split_conditions":[5.7E0,1.2561224E1,1.5855997E0,2.175E1,5.15E2,2.59462E4,2.498491E4,3.8046706E-1,1.719307E-1,1.95E0,8.05E0,-2.27E1,4.9400387E-5,2.290165E4,9.645E1,2.6229515E0,6.581283E-5,9.896251E0,2.501525E4,1.35E0,3E0,4.502E3,4.85E0,3.8324233E-2,-2.833193E-1,-2.462439E-2,5.56593E-2,3.575766E-1,2.4410807E1,7.9E0,4.4226766E-2,-5.1389392E-3,-2.951681E-2,6.469821E-2,-1.795878E-2,-1.8337095E-2,4.0664185E-2,-1.3453838E-2,-5.8373835E-2,-4.2683893E-4,-3.4444958E-2,3.0515123E-2,3.0632417E-3,1.1230724E-2,-5.0501164E-2,2.6639877E-2,-1.8384943E-2,-2.0293381E-2,4.6514567E-2,2.6470834E-5,-4.2517535E-2,-5.7892352E-2,9.86598E-3,-9.955773E-3,2.0129113E-2,-1.4290824E-2,-4.3634832E-2],"split_indices":[28,20,16,5,0,3,17,18,18,9,7,5,15,3,5,16,15,20,3,9,9,0,8,14,18,0,0,18,20,28,0,0,0,0,0,0,0,0,0,0,0,0,0,0,0,0,0,0,0,0,0,0,0,0,0,0,0],"split_type":[0,0,0,0,0,0,0,0,0,0,0,0,0,0,0,0,0,0,0,0,0,0,0,0,0,0,0,0,0,0,0,0,0,0,0,0,0,0,0,0,0,0,0,0,0,0,0,0,0,0,0,0,0,0,0,0,0],"sum_hessian":[9.968068E2,7.562486E2,2.4055821E2,2.9557306E2,4.6067554E2,5.6041283E1,1.8451692E2,2.669293E2,2.864378E1,1.8103903E2,2.796365E2,5.307292E1,2.9683616E0,1.2581669E2,5.8700237E1,2.6087698E2,6.052279E0,2.6199127E1,2.444653E0,5.5198765E1,1.25840256E2,1.4804774E2,1.3158876E2,2.3134823E0,5.0759438E1,1.5825342E0,1.3858274E0,9.171481E0,1.1664521E2,5.7310783E1,1.3894548E0,2.4273108E2,1.8145914E1,4.403971E0,1.6483079E0,3.5881774E0,2.261095E1,1.2093148E0,1.2353383E0,3.7987526E1,1.7211237E1,2.470261E1,1.0113765E2,1.4513007E2,2.9176743E0,1.23922844E2,7.665916E0,1.2297465E0,1.083736E0,5.1027255E0,4.5656715E1,7.698504E0,1.472977E0,8.9170364E1,2.7474844E1,2.8559633E1,2.8751148E1],"tree_param":{"num_deleted":"0","num_feature":"31","num_nodes":"57","size_leaf_vector":"1"}},{"base_weights":[-4.2856636E-4,1.628714E-1,-2.287152E-1,6.973164E-2,3.589732E-1,-1.129293E-1,-4.5959383E-1,4.273468E-2,5.8154815E-1,4.7005257E-1,1.1846034E-1,-3.9348876E-1,3.2016326E-2,-6.000679E-1,-1.0825131E-1,9.640195E-2,-4.1781217E-1,-3.5550466E-1,7.651287E-1,2.5928265E-1,6.83808E-1,5.439342E-1,-8.4602706E-2,-1.8133172E-1,-8.595584E-1,-4.8968945E-2,5.736474E-1,-6.813884E-1,-8.5126825E-2,9.534146E-2,-5.428569E-1,3.317576E-3,3.183228E-2,2.2725357E-2,-2.646353E-2,-3.233535E-2,8.219626E-3,-1.4809039E-2,4.330668E-2,6.866136E-3,4.4628903E-2,4.671592E-2,2.0895282E-2,4.464133E-2,-3.4258931E-3,-1.97662E-2,1.6705401E-2,-3.1447228E-2,6.519325E-3,-4.7097683E-2,7.819612E-3,2.3467531E-3,-3.2602854E-2,3.60665E-2,-2.6714657E-2,-3.8455974E-2,-1.1138067E-2,1.1241694E-2,-5.1310565E-2,-7.986012E-3,3.6485698E-2,-3.7323754E-2,2.8483037E-2],"categories":[],"categories_nodes":[],"categories_segments":[],"categories_sizes":[],"default_left":[0,0,0,0,0,0,0,0,0,0,0,0,0,0,0,0,0,0,0,0,0,0,0,0,0,0,0,0,0,0,0,0,0,0,0,0,0,0,0,0,0,0,0,0,0,0,0,0,0,0,0,0,0,0,0,0,0,0,0,0,0,0,0],"id":23,"left_children":[1,3,5,7,9,11,13,15,17,19,21,23,25,27,29,31,33,35,37,39,41,43,45,47,49,51,53,55,57,59,61,-1,-1,-1,-1,-1,-1,-1,-1,-1,-1,-1,-1,-1,-1,-1,-1,-1,-1,-1,-1,-1,-1,-1,-1,-1,-1,-1,-1,-1,-1,-1,-1],"loss_changes":[3.7124756E1,1.0578915E1,1.10499115E1,5.4310675E0,4.932434E0,1.1314083E1,6.76482E0,9.337345E0,3.661707E0,5.5617847E0,5.257917E0,9.2124E0,8.106419E0,4.072441E0,3.6569934E0,5.4402637E0,4.075735E0,6.98385E-1,2.0568018E0,4.9558134E0,3.7816505E0,4.2543693E0,5.5574207E0,9.343142E0,2.6058254E0,9.350324E0,4.317882E0,3.2503853E0,4.488148E0,4.743758E0,3.4035437E0,0E0,0E0,0E0,0E0,0E0,0E0,0E0,0E0,0E0,0E0,0E0,0E0,0E0,0E0,0E0,0E0,0E0,0E0,0E0,0E0,0E0,0E0,0E0,0E0,0E0,0E0,0E0,0E0,0E0,0E0,0E0,0E0],"parents":[2147483647,0,0,1,1,2,2,3,3,4,4,5,5,6,6,7,7,8,8,9,9,10,10,11,11,12,12,13,13,14,14,15,15,16,16,17,17,18,18,19,19,20,20,21,21,22,22,23,23,24,24,25,25,26,26,27,27,28,28,29,29,30,30],"right_children":[2,4,6,8,10,12,14,16,18,20,22,24,26,28,30,32,34,36,38,40,42,44,46,48,50,52,54,56,58,60,62,-1,-1,-1,-1,-1,-1,-1,-1,-1,-1,-1,-1,-1,-1,-1,-1,-1,-1,-1,-1,-1,-1,-1,-1,-1,-1,-1,-1,-1,-1,-1,-1],"split_conditions":[3.95E0,1.5817637E1,7.7E0,2.614985E4,1.3850357E-1,2.375E1,5.2E0,2.590575E4,3.7902375E-3,1.8133976E0,1.7372807E0,2.14E1,3.575766E-1,4.15E1,1.355E1,2.58027E4,9.15169E0,-8.149762E-2,2.608494E4,1.87E1,8.254267E-2,8E0,3.7109843E-1,1.1867218E1,1.503E3,2.3027332E-1,2.56376E4,2.456333E1,1.505E1,8.3E0,1.276E2,3.317576E-3,3.183228E-2,2.2725357E-2,-2.646353E-2,-3.233535E-2,8.219626E-3,-1.4809039E-2,4.330668E-2,6.866136E-3,4.4628903E-2,4.671592E-2,2.0895282E-2,4.464133E-2,-3.4258931E-3,-1.97662E-2,1.6705401E-2,-3.1447228E-2,6.519325E-3,-4.7097683E-2,7.819612E-3,2.3467531E-3,-3.2602854E-2,3.60665E-2,-2.6714657E-2,-3.8455974E-2,-1.1138067E-2,1.1241694E-2,-5.1310565E-2,-7.986012E-3,3.6485698E-2,-3.7323754E-2,2.8483037E-2],"split_indices":[28,20,28,3,18,6,9,4,14,16,16,6,18,5,28,3,20,18,17,7,14,5,18,20,0,18,3,20,28,7,5,0,0,0,0,0,0,0,0,0,0,0,0,0,0,0,0,0,0,0,0,0,0,0,0,0,0,0,0,0,0,0,0],"split_type":[0,0,0,0,0,0,0,0,0,0,0,0,0,0,0,0,0,0,0,0,0,0,0,0,0,0,0,0,0,0,0,0,0,0,0,0,0,0,0,0,0,0,0,0,0,0,0,0,0,0,0,0,0,0,0,0,0,0,0,0,0,0,0],"sum_hessian":[9.938578E2,5.7956494E2,4.1429285E2,3.938561E2,1.8570882E2,2.7691086E2,1.37382E2,3.7515137E2,1.8704739E1,1.2638454E2,5.932428E1,9.374383E1,1.8316704E2,9.7636826E1,3.974517E1,3.367059E2,3.8445477E1,2.9107652E0,1.5793973E1,6.475095E1,6.1633583E1,1.8623722E1,4.0700554E1,6.537424E1,2.8369585E1,1.6013332E2,2.303372E1,8.404158E1,1.3595245E1,2.759759E1,1.2147579E1,3.2002756E2,1.6678347E1,4.0070252E0,3.443845E1,1.7093945E0,1.2013707E0,1.204573E0,1.4589399E1,5.5315205E1,9.435753E0,3.0440966E1,3.1192616E1,1.1573129E1,7.0505943E0,2.3395115E1,1.730544E1,2.6419458E1,3.895478E1,2.6308739E1,2.060847E0,1.3895815E2,2.1175165E1,2.0632467E1,2.4012518E0,6.997837E1,1.4063211E1,1.079939E1,2.7958555E0,2.0217127E1,7.380462E0,1.0546357E1,1.6012223E0],"tree_param":{"num_deleted":"0","num_feature":"31","num_nodes":"63","size_leaf_vector":"1"}},{"base_weights":[-3.8196903E-4,1.554695E-1,-2.187894E-1,6.638941E-2,3.4399918E-1,-1.07827865E-1,-4.419799E-1,-6.07044E-2,1.6982514E-1,4.51124E-1,1.1344733E-1,-3.186306E-1,6.831373E-2,-5.7874453E-1,-1.0288249E-1,-1.1261433E-1,7.1528846E-1,1.3404855E0,1.312259E-1,2.4806201E-1,6.5878916E-1,5.2271664E-1,-8.033101E-2,-6.708059E-1,-1.4315417E-1,-1.5490431E-2,6.601994E-1,-6.577537E-1,-8.398226E-2,2.8445758E-3,-9.033719E-1,-1.6699017E-3,-4.9260538E-2,-2.9155461E-2,5.0474014E-2,7.905986E-2,5.3047906E-3,1.62507E-3,2.9478634E-2,-4.8861513E-3,2.3340976E-2,4.5192283E-2,2.0040927E-2,4.309679E-2,-3.273538E-3,-3.152753E-2,7.1852184E-3,3.1211037E-2,-4.00249E-2,1.976058E-2,-1.5190758E-2,-9.299682E-3,1.0734998E-2,-1.2278755E-2,4.7599386E-2,-3.7200395E-2,-1.0652909E-2,1.6853528E-2,-3.7254553E-2,-2.652556E-2,8.915096E-3,-1.33659905E-2,-5.0411236E-2],"categories":[],"categories_nodes":[],"categories_segments":[],"categories_sizes":[],"default_left":[0,0,0,0,0,0,0,0,0,0,0,0,0,0,0,0,0,0,0,0,0,0,0,0,0,0,0,0,0,0,0,0,0,0,0,0,0,0,0,0,0,0,0,0,0,0,0,0,0,0,0,0,0,0,0,0,0,0,0,0,0,0,0],"id":24,"left_children":[1,3,5,7,9,11,13,15,17,19,21,23,25,27,29,31,33,35,37,39,41,43,45,47,49,51,53,55,57,59,61,-1,-1,-1,-1,-1,-1,-1,-1,-1,-1,-1,-1,-1,-1,-1,-1,-1,-1,-1,-1,-1,-1,-1,-1,-1,-1,-1,-1,-1,-1,-1,-1],"loss_changes":[3.3784225E1,9.704463E0,1.0188141E1,5.197568E0,4.533169E0,1.0321342E1,6.2905235E0,7.24196E0,9.665923E0,5.166561E0,4.8180013E0,7.718072E0,7.546775E0,3.750454E0,3.4360383E0,1.1545336E1,4.8985357E0,1.865735E0,9.572058E0,5.0010166E0,3.5499802E0,3.944017E0,5.2354946E0,7.51672E0,7.5296607E0,5.301993E0,5.2203674E0,3.0559006E0,4.3019624E0,3.541419E0,4.635048E-2,0E0,0E0,0E0,0E0,0E0,0E0,0E0,0E0,0E0,0E0,0E0,0E0,0E0,0E0,0E0,0E0,0E0,0E0,0E0,0E0,0E0,0E0,0E0,0E0,0E0,0E0,0E0,0E0,0E0,0E0,0E0,0E0],"parents":[2147483647,0,0,1,1,2,2,3,3,4,4,5,5,6,6,7,7,8,8,9,9,10,10,11,11,12,12,13,13,14,14,15,15,16,16,17,17,18,18,19,19,20,20,21,21,22,22,23,23,24,24,25,25,26,26,27,27,28,28,29,29,30,30],"right_children":[2,4,6,8,10,12,14,16,18,20,22,24,26,28,30,32,34,36,38,40,42,44,46,48,50,52,54,56,58,60,62,